tree
version=v3
num_class=1
num_tree_per_iteration=1
label_index=0
max_feature_idx=230
objective=binary sigmoid:1
feature_names=Column_0 Column_1 Column_2 Column_3 Column_4 Column_5 Column_6 Column_7 Column_8 Column_9 Column_10 Column_11 Column_12 Column_13 Column_14 Column_15 Column_16 Column_17 Column_18 Column_19 Column_20 Column_21 Column_22 Column_23 Column_24 Column_25 Column_26 Column_27 Column_28 Column_29 Column_30 Column_31 Column_32 Column_33 Column_34 Column_35 Column_36 Column_37 Column_38 Column_39 Column_40 Column_41 Column_42 Column_43 Column_44 Column_45 Column_46 Column_47 Column_48 Column_49 Column_50 Column_51 Column_52 Column_53 Column_54 Column_55 Column_56 Column_57 Column_58 Column_59 Column_60 Column_61 Column_62 Column_63 Column_64 Column_65 Column_66 Column_67 Column_68 Column_69 Column_70 Column_71 Column_72 Column_73 Column_74 Column_75 Column_76 Column_77 Column_78 Column_79 Column_80 Column_81 Column_82 Column_83 Column_84 Column_85 Column_86 Column_87 Column_88 Column_89 Column_90 Column_91 Column_92 Column_93 Column_94 Column_95 Column_96 Column_97 Column_98 Column_99 Column_100 Column_101 Column_102 Column_103 Column_104 Column_105 Column_106 Column_107 Column_108 Column_109 Column_110 Column_111 Column_112 Column_113 Column_114 Column_115 Column_116 Column_117 Column_118 Column_119 Column_120 Column_121 Column_122 Column_123 Column_124 Column_125 Column_126 Column_127 Column_128 Column_129 Column_130 Column_131 Column_132 Column_133 Column_134 Column_135 Column_136 Column_137 Column_138 Column_139 Column_140 Column_141 Column_142 Column_143 Column_144 Column_145 Column_146 Column_147 Column_148 Column_149 Column_150 Column_151 Column_152 Column_153 Column_154 Column_155 Column_156 Column_157 Column_158 Column_159 Column_160 Column_161 Column_162 Column_163 Column_164 Column_165 Column_166 Column_167 Column_168 Column_169 Column_170 Column_171 Column_172 Column_173 Column_174 Column_175 Column_176 Column_177 Column_178 Column_179 Column_180 Column_181 Column_182 Column_183 Column_184 Column_185 Column_186 Column_187 Column_188 Column_189 Column_190 Column_191 Column_192 Column_193 Column_194 Column_195 Column_196 Column_197 Column_198 Column_199 Column_200 Column_201 Column_202 Column_203 Column_204 Column_205 Column_206 Column_207 Column_208 Column_209 Column_210 Column_211 Column_212 Column_213 Column_214 Column_215 Column_216 Column_217 Column_218 Column_219 Column_220 Column_221 Column_222 Column_223 Column_224 Column_225 Column_226 Column_227 Column_228 Column_229 Column_230
feature_infos=[0:0.24987599206349206] [-3.0457974761199593:7.2297269348509419] [-3.5396731526557694:6.1155714102649954] [-3.6189843517041793:5.8552242742539207] [-0.62661926549000457:92.966806350048614] [-0.30074811482545255:25.578825156126499] [-0.30455763735560248:9.3956044415460056] [-0.64261308926976057:16.395658911033156] [-0.23511918221225844:34.115228202362893] [-1.7634807477106142:11.885721756051591] [0:1] none [0:1] [0:1] [0:1] [0:1] [0:1] [0:1] none [0:1] [0:1] [-0.38917446784101783:17.740813348194713] [0:1] [-1.2348191727369275:18.090942907753433] [0:1] [0:1] [0:1] [0:1] [-0.20604407716020257:434.72583723279371] [0:1] [0:1] [0:1] [-0.3081119150828297:21.215373693310347] [-0.59708946105532867:7.1474819653317239] [-1.2895031868021534:2.006114829686386] [0:1] [0:1] [-0.05318044873316672:7.3904739628255856] [0:1] [-0.46409204516609559:8.709322653433464] [-1.0740342608785938:5.027149532780598] [-2.3657462094296915:7.7814224530951526] [-0.60551709785872554:36.639294919682449] [-9.9891837212927719:16.610372641784114] [-4.6937393754369072:7.7694158002686127] [0:1] [0:1] [-8.2269870305971509:22.180305982542297] [-1.3380774350007163:4.501183810492714] [0:1] [-1.9480756479879566:10.913797726637886] [0:1] [-0.089220616418555804:39.981830808095246] [-1.9951974062892777:4.4158033840522517] [-1.4257626739049007:1.4682684556961003] [-1.9213445892011587:4.0350916088936888] [-1.6282249008629732:11.49970457419694] [-0.42401744431335847:8.6599429059193831] [-1.8410769397383386:3.6649030293203464] [-1.7092352166818949:0.82911007042018015] [-2.588703594393754:0.62734756043688755] [-3.7670858561231833:0.43724651382636015] [0:1] [-0.049731230527351435:151.52174400162059] [-0.83574084723148701:6.5843275565227186] [-4.743963422626325:8.619867600188476] [0:1] [-4.063270562120934:7.4492292002863838] [-0.047449461499325836:1.0310740483908969] [-0.98140323069388802:9.705085252443185] [-0.2974391085888165:119.49557665860291] [-3.1873769157903111:19.128589020233498] [0:1] [0:1] [-0.062674826742774997:48.981727467471423] [-0.20586345003229631:38.823583793603206] [-0.041279387797996496:17.642530160499739] [-1.182270422507228:5.1750212089922529] [-4.0236463543288954:14.084633045993096] [0:1] [0:1] [-0.17211708686064092:23.099056448725708] [-1.246748184591262:6.768590950326792] [-0.45331437564880012:13.869675747641596] [-0.95504250120777101:12.800118318366488] [-0.022819568937210349:193.35536838798248] [0:1] [-7.4367077622665239:6.3153956173636745] [-6.9207844514626942:5.7353666613987491] [-5.4935251193107062:6.8771191496175383] [0:1] [0:1] [-3.4110082553519709:16.466446501403833] [0:1] [0:1] [-3.0817430141934086:6.8379712550450167] [-3.0443518022551297:5.7818787276924892] [-2.8525258104635212:5.178482392179717] [0:1] [0:1] [-6.8197866678832479:29.741007208226403] [0:1] [0:1] [-1.6581395548318245:12.971853647101904] [0:1] [0:1] [-0.2779506073226119:92.862157771894914] [-0.97645995264153229:7.3567239159171764] [-0.12469812287024795:481.9672191721404] [0:1] [-1.0217114418379707:6.8188001904690978] [-1.437259071029003:6.3362199759605886] [-1.4676792085753978:6.1457188771650779] [-1.0442885307135037:7.3993814047510167] [0:1] [0:1] [0:1] [-2.6578506649445433:7.4128767888738123] [0:1] [0:1] [-2.6243964191963576:4.4738946550611409] [-0.1510571289994932:67.845013841269051] [0:1] [0:1] [-1.984948415872394:2.7852630102808122] [-1.8409764555381261:6.2306817059353472] [-3.6468839050949788:7.6485924230570905] [0:1] [0:1] [0:1] [0:1] none none [0:1] [0:1] [0:1] [0:1] [0:1] [0:1] [0:1] [-16.868267293739848:18.396871325709629] [-24.681844776982029:17.073898369788918] [-14.987429262856491:20.53246251427862] [-0.43165341470444724:10.217858212937687] [-3.1338082191962351:2.0861069427095882] [-23.047001954937517:0.96649480853222691] [-1.9678860954582438:9.6049512256780289] [-1.3594253230669879:3.9142299742380326] [-0.37667588378231726:12.382295948320293] [-6.1833684249398111:2.2499081238413465] [-11.579357142744731:3.9608698247539706] [-1.5414827839410263:0.8757779703534011] [-0.61456415064933101:11.953310033869224] [-2.7509019683939337:5.2009958926171569] [0:1] [0:1] [0:1] [0:1] [0:1] [0:1] [0:1] [-0.45249018404673852:8.5588278779101863] [-1.3068523626306541:6.4246989608675857] [0:1] none none [0:1] [0:1] [0:1] [0:1] [0:1] none [0:1] none none [0:1] [0:1] [-2.4526775721113028:6.8514056628743649] [-1.4474658042675259:7.2095464663754969] [-4.9482416676390093:6.0537466877248249] [-7.5761515049931818:5.5617094190040124] [-1.1376667389672903:11.697496127758827] [-2.6350298397765974:19.721202392291929] [-6.0859716616735158:6.4615712375720546] [-3.5861199422052938:5.4903345503042269] [-1.0890807551398454:11.023706782738357] [-1.9597608494909653:14.543575410252274] [-2.0644131816528262:10.256815427515125] [-17.390150523673384:0.81682765064786655] [-4.236764980665062:8.9495624562182581] [-14.52694559265281:4.6137615120043129] [0:1] [0:1.0000000000000002] [-2.698905544422062:1.7975630510013265] [-2.2675697287241645:4.9823063896248669] [-0.89818442618379468:16.530894563199741] [-0.44349339326796811:15.887744230295676] [0:1] [-0.16298044487735486:39.617501838367637] [-0.30643057491716863:27.372651331251898] [-1.2149582833418651:15.219664478822091] [-0.026432951889647983:72.06257719279354] [-0.21449571328254796:6.7545053889461526] [-0.064119913906063808:21.57769621917129] [-2.0835608988830927:3.4887527517913144] [-0.77571292200974939:9.2808363019497371] [-3.2925262045082131:23.340736687614264] [-2.6925362751791257:0] [-0.025885930444521671:0.067849301999639566] [-0.45341532495718639:18.348821063146247] [-0.44947164273807494:6.1168417998364726] [0:1] [-0.21438189716724121:69.059584627621476] [-3.6915936291238309:2.5806011777044366] [-2.8927837352816366:1.5828393330854911] [-0.099217784085513891:156.53715791878494] [-2.521489336493592:9.4569559421329323] [-1.4601254246543776:7.9325122727270303] [-0.066877297286348239:169.28922731465036] [-0.40156347717889695:7.9511916045375095] [0:1] [0:1] [-1.1653552982129973:4.8435292870993569] [-0.20156955473362134:11.780924138735918] [-1.6808203460065201:35.5755368179531] [-1.208516154380527:3.6867801948163592] [-1.4123922083421661:4.1769113858020805] [-1.34701203749794:3.7609862259726241] [-1.1455136832646466:6.6509554028760727] [0:1] [-0.10235473562822056:9.8217803260708809]
tree_sizes=1892 1884 1903 1944 1939 1899 1943 1937 1958 1942 1946 1912 1905 1935 1950 1828 1904 1911 1910 1906 1901 1794 1908 1901 1915 1899 1805 1923 1934 1929 1929 1919 1819 1802 1922 1910 1940 1925 1935 1820 1820 1814 1924 1930 1809 1469 1943 1709 1823 1950 1917 1960 1953 1898 1900 1928 1811 1940 1928 1806 1593 1942 1698 1917 1947 1907 1923 1461 1928 1943 1810 1833 1822 1953 1819 1803 1901 1583 1799 1952 1801 1572 1805 1801 1901 1947 1918 1591 1797 1802 1794 1825 1832 1810 1919 1909 1817 1800 1611 1452 1914 1922 1905 1918 1443 1834 1812 1910 1359 1790 1935 1571 1903 1688 1784 1942 1947 1932 1920 1924 1683 1913 1800 1899 1922 1917 1928 1800 1918 1562 1925 1466 1790 1698 1689 1917 1794 1562 1921 1895 1905 1346 1820 1902 1906 1458 1685 1675 1845 1930 1941

Tree=0
num_leaves=16
num_cat=0
split_feature=170 162 162 124 203 162 199 108 3 183 183 206 3 40 183
split_gain=218672 117316 78556.7 64222.4 52661.8 38139.6 17431 12503.6 13476.4 7194.62 3927.7 3182.69 2775.09 1729.13 1682.8
threshold=1.0000000180025095e-35 -1.0000000180025095e-35 1.0000000180025095e-35 -1.7199366699749934 1.0000000180025095e-35 -1.0000000180025095e-35 -0.0017419313340501462 -1.0000000180025095e-35 1.0000000180025095e-35 -2.3853749624229224 -0.81361633019943103 0.8728217250457776 -0.49902944212142569 -1.0076059616176474 -1.854823457068381
decision_type=2 2 2 2 2 2 2 2 2 2 2 2 2 2 2
left_child=3 10 4 5 -3 14 -7 12 -9 -4 11 -2 -5 -12 -1
right_child=1 2 9 7 -6 6 -8 8 -10 -11 13 -13 -14 -15 -16
leaf_value=-3.3374471526889464 -3.8901532797294522 -3.2740689759834023 -2.8131546781456436 -4.0814795472580334 -1.1513211662269591 -3.9023004714200393 -3.1529414389736905 -3.991854041856989 -4.1046224174534078 -4.028518448017909 -3.8681741702322707 -3.1949861577767047 -4.1259295308393495 -4.1001605010087685 -4.0782659807456279
leaf_weight=31.50980519130826 439.19138005003333 5989.8330329917371 50.149408262223005 19065.429241070524 119.19445809908211 401.4513046015054 1368.850117828697 22120.600152108818 20343.334482377395 1693.9678098540753 353.12830433249474 77.477251226082444 53342.600996000692 3563.936487166211 1140.2930801734328
leaf_count=1846 25730 350914 2938 1116947 6983 23519 80194 1295934 1191813 99241 20688 4539 3125073 208793 66804
internal_value=-4.03543 -3.63382 -3.40165 -4.07714 -3.23265 -3.6158 -3.32287 -4.08896 -4.04588 -3.99357 -4.04506 -3.78591 -4.11423 -4.07925 -4.05835
internal_weight=0 12286.9 7853.14 117814 6109.03 2942.1 1770.3 114872 42463.9 1744.12 4433.73 516.669 72408 3917.06 1171.8
internal_count=7621956 719826 460076 6902130 357897 172363 103713 6729767 2487747 102179 259750 30269 4242020 229481 68650
is_linear=0
shrinkage=1


Tree=1
num_leaves=16
num_cat=0
split_feature=0 185 2 185 0 120 2 0 185 2 0 185 0 185 0
split_gain=366897 292071 87689 39951 49352.5 19760.7 17080.4 11943.7 34281.3 22746.1 10792.9 1374.3 601.453 2549.6 11.0647
threshold=0.011966765873015874 0.42501764593484398 -0.46524001551521027 1.0000000180025095e-35 0.00080605158730158737 -1.0000000180025095e-35 -0.66850832210301581 0.015687003968253972 0.42501764593484398 -0.61769124545606446 0.0041542658730158739 0.17948820779210903 0.017175099206349211 0.42501764593484398 0.017423115079365083
decision_type=2 2 2 2 2 2 2 2 2 2 2 2 2 2 2
left_child=1 3 5 4 -1 -3 -5 8 11 -10 -4 -2 13 -9 -14
right_child=7 2 10 6 -6 -7 -8 12 9 -11 -12 -13 14 -15 -16
leaf_value=0.54712830264450263 -0.072406708047003401 1.353511005197606 0.94203966031966579 0.65903698822449119 0.051411690348256094 2.0696806259565017 0.2724421289499277 -0.092030337462609288 1.3828210519909432 0.29725288554737117 0.55513220888267456 0.082146533066279281 -0.086109294311623119 0.18980305597526234 -0.1017235716685998
leaf_weight=2267.088873943314 5576.1350181028247 1135.3626967612654 1168.8587127253413 1943.4823759309947 17598.459081603214 583.16702984273434 2774.1317161265761 2405.3825122825801 255.39258328825235 790.27243245579302 1881.5927112698555 641.53607955016196 456.03434031642973 370.41671861894429 94063.217030646279
leaf_count=94148 307309 37385 42062 62754 851433 25864 109640 135393 11900 41298 84246 31205 25692 19921 5742851
internal_value=0 0.309044 1.02524 0.170107 0.107984 1.59654 0.431705 -0.0910664 0.0326329 0.562391 0.703386 -0.05646 -0.100301 -0.0544211 -0.101648
internal_weight=0 29352.1 4768.98 24583.2 19865.5 1718.53 4717.61 104558 7263.34 1045.67 3050.45 6217.67 97295.1 2775.8 94519.3
internal_count=7623101 1307532 189557 1117975 945581 63249 172394 6315569 391712 53198 126308 338514 5923857 155314 5768543
is_linear=0
shrinkage=0.1


Tree=2
num_leaves=16
num_cat=0
split_feature=0 3 124 0 0 206 206 65 97 3 144 124 0 3 0
split_gain=218948 32822.4 14274 13295.8 7278.08 7187.01 6499.6 6146.49 5764.95 3059.92 850.929 727.177 175.283 208.77 11.4537
threshold=0.012710813492063494 -0.36835070245303808 1.0000000180025095e-35 0.0052703373015873028 0.016431051587301591 0.96759375645784251 -1.0000000180025095e-35 0.71801730661540952 -0.6824448706003482 -0.62970818178981325 -1.5284875564268097 -0.65988968638539236 0.017175099206349211 -0.95640503096078222 0.017423115079365083
decision_type=2 2 2 2 2 2 2 2 2 2 2 2 2 2 2
left_child=1 3 7 6 9 -5 -1 -3 -4 10 -2 -11 13 -6 -14
right_child=4 2 8 5 12 -7 -8 -9 -10 11 -12 -13 14 -15 -16
leaf_value=0.25342237599972578 0.55296419976476607 0.13860914574677252 0.38894928194127604 0.15398009011576058 0.024434798454497555 0.34131695772106452 0.41885622264111566 0.35162728213708333 -0.0095024782628769094 0.021052981045321845 0.081825601039736684 -0.067598682487906459 -0.084988914804680543 -0.082480744342652429 -0.10155092104474611
leaf_weight=4021.6996027138084 38.912154763936996 9717.1621381407604 377.02006112411618 9475.169726325199 218.90817882586271 2612.5085466895252 5799.5725073479116 1573.9519244646654 9845.5393445752561 1240.2504994329065 2584.7999013196677 3643.2278932891786 419.61549502052367 1102.2450194964185 85220.891563435085
leaf_count=92461 1538 282282 17469 273762 11296 59159 117559 46682 498064 53023 111994 223938 25661 66395 5741793
internal_value=0 0.178535 0.0907988 0.264689 -0.0927569 0.194469 0.351113 0.168303 0.00519289 0.00171215 0.088813 -0.0450839 -0.100912 -0.0647654 -0.10147
internal_weight=0 43422.6 21513.7 21909 94468.9 12087.7 9821.27 11291.1 10222.6 7507.19 2623.71 4883.48 86961.7 1321.15 85640.5
internal_count=7623076 1387438 844497 542941 6235638 332921 210020 328964 515533 390493 113532 276961 5845145 77691 5767454
is_linear=0
shrinkage=0.1


Tree=3
num_leaves=16
num_cat=0
split_feature=185 170 107 185 107 185 106 107 2 200 51 180 124 185 124
split_gain=80096.2 20367.1 17740.6 11058.5 9781.38 8351.24 8704.07 5956.52 4968.15 4859.48 4111.51 2992.31 1838.27 1422.45 1192.5
threshold=0.26133133757891264 1.0000000180025095e-35 -1.0000000180025095e-35 -0.18430465801846574 1.0000000180025095e-35 -0.066041279132950131 -1.0000000180025095e-35 -0.17989252659172197 -0.21115463228045336 -0.026144710214267616 1.0000000180025095e-35 -1.7026087348594752 -1.7199366699749934 -0.39341389584481279 -1.1899131781801928
decision_type=2 2 2 2 2 2 2 2 2 2 2 2 2 2 2
left_child=1 5 8 13 11 12 -7 -5 10 -6 -2 -4 -1 -3 -10
right_child=2 3 4 7 9 6 -8 -9 14 -11 -12 -13 -14 -15 -16
leaf_value=-0.0020877527558623996 0.12571567688463312 -0.068076213942405622 0.38702059540005745 -0.0034655380283856747 -0.022030759640560137 -0.058914290055699661 0.05916696172784857 0.1799407300187722 0.043028217577705613 0.16479438749684894 -0.078988790746222379 0.24241165747285562 -0.09279766504312241 0.014214676004623415 -0.063592842877855091
leaf_weight=2325.2874745195732 6980.889532443136 4615.4030428752303 1729.7420718874782 2447.6944943116978 1927.2077490566298 21572.212157989852 8784.6043237829581 6403.0360542144626 1520.5369755085558 5015.71212037839 1141.6335195600986 8283.0271538421512 56959.469338664785 3855.0399059308693 3382.5825843578205
leaf_count=84665 239709 191805 22099 95426 119377 1416077 454003 124865 65339 127096 79421 133132 4106859 139322 224433
internal_value=0 -0.0482171 0.136725 0.0510522 0.204147 -0.0673986 -0.0247441 0.129219 0.048961 0.112936 0.0969441 0.267393 -0.0892398 -0.0306243 -0.0305279
internal_weight=0 106963 29981.3 17321.2 16955.7 89641.6 30356.8 8850.73 13025.6 6942.92 8122.52 10012.8 59284.8 8470.44 4903.12
internal_count=7623628 6613022 1010606 551418 401704 6061604 1870080 220291 608902 246473 319130 155231 4191524 331127 289772
is_linear=0
shrinkage=0.1


Tree=4
num_leaves=16
num_cat=0
split_feature=200 200 222 222 3 180 106 180 107 190 106 71 188 206 187
split_gain=44993.5 24668.5 22413.6 12392.5 4683.9 4400.65 2937.26 2148.38 1723.02 973.828 710.887 605.783 518.576 516.697 423.249
threshold=-1.0000000180025095e-35 1.0000000180025095e-35 -1.0000000180025095e-35 1.4957221609967599 -0.62970818178981325 -2.5221728023863785 -0.27786702713511208 -0.98238576194099114 -0.056180044175880885 -1.9289725937109188 -0.27786702713511208 0.31984050192179964 0.68844529032665236 1.6564247694627972 0.57957139304177663
decision_type=2 2 2 2 2 2 2 2 2 2 2 2 2 2 2
left_child=7 2 4 -4 -2 8 -7 9 -3 11 14 -1 -12 -11 -9
right_child=1 5 3 -5 -6 6 -8 10 -10 13 12 -13 -14 -15 -16
leaf_value=0.053345740889217133 0.064880227935853546 0.034445129670933702 0.12883275232149471 -0.04674673120417442 -0.045628078508581568 0.13920961750988348 -0.069967061744957371 -0.042322951136926142 0.33431917934934946 -0.042513936352505971 -0.092117506673424818 0.29265361003329349 -0.048668673053411354 0.10353139328842505 0.10529482203555347
leaf_weight=420.83702724054456 5139.5957166943699 392.56529598962516 37980.600482981652 4495.6681176051497 15115.635695690289 694.20019396953285 20348.525872263126 792.70100404229015 374.30061356630176 2776.1862484337762 43352.851057006977 141.29532682616264 2932.8174643963575 265.40746403858066 257.26786266174167
leaf_count=17331 213697 20264 815705 276938 903614 32556 1496072 47524 9650 179706 3382033 3654 203930 11254 10463
internal_value=0 0.0371218 0.0689725 0.11025 -0.0175875 -0.0544911 -0.0630663 -0.0818522 0.180811 -0.00742236 -0.0875187 0.113497 -0.0893644 -0.0297701 -0.00615301
internal_weight=0 84541.1 62731.5 42476.3 20255.2 21809.6 21042.7 50939.4 766.866 3603.73 47335.6 562.132 46285.7 3041.59 1049.97
internal_count=7624391 3768496 2209954 1092643 1117311 1558542 1528628 3855895 29914 211945 3643950 20985 3585963 190960 57987
is_linear=0
shrinkage=0.1


Tree=5
num_leaves=16
num_cat=0
split_feature=0 185 2 212 146 0 185 2 185 3 189 212 0 185 0
split_gain=129681 27598.3 14514 5914.5 5275.82 2643.96 4393.56 1692.7 1548.08 803.682 321.294 251.928 55.6001 279.91 1.30333
threshold=0.014198908730158732 -0.22604466835660958 1.0000000180025095e-35 0.30502632863894746 0.011678183157171517 0.0168030753968254 0.42501764593484398 -0.46524001551521027 -0.48207733116431389 -0.76038692145820075 1.5375934093903121 0.75550026493734312 0.017423115079365083 0.50686082450397185 0.017795138888888892
decision_type=2 2 2 2 2 2 2 2 2 2 2 2 2 2 2
left_child=1 8 3 -3 -4 6 11 -8 10 -10 -1 -2 13 -7 -14
right_child=5 2 4 -5 -6 12 7 -9 9 -11 -12 -13 14 -15 -16
leaf_value=-0.078922395996941189 -0.0818002197305263 0.16131077497981472 -0.004801517276638914 0.3686991331027421 0.12349949853550368 -0.099768165111983581 0.25823335077505793 0.019813358894551918 0.053503430116610601 -0.024817396800899505 0.0032085866146428729 0.10312964587408235 -0.096374621868341059 0.049718239006719317 -0.10129772502156549
leaf_weight=5320.3560946304351 3718.3358943266794 33210.815500919707 7931.847926360555 1434.5466091744602 5378.1579356109723 832.00763699226081 610.63457824196666 581.20799378026277 1952.010564445518 3984.6322755571455 523.14316473994404 75.154076277278364 542.05023452453315 147.46113612316549 67681.466678125784
leaf_count=234481 233403 615209 348956 25467 80930 57330 11746 23872 58403 156995 24054 3886 38638 7151 5703248
internal_value=0 0.102111 0.135799 0.169898 0.0470409 -0.0958521 -0.0255165 0.141967 -0.0350306 0.00093505 -0.0715696 -0.0781365 -0.100919 -0.0772627 -0.101259
internal_weight=0 59735.5 47955.4 34645.4 13310 74188.3 4985.33 1191.84 11780.1 5936.64 5843.5 3793.49 69203 979.469 68223.5
internal_count=7623769 1544495 1070562 640676 429886 6079274 272907 35618 473933 215398 258535 237289 5806367 64481 5741886
is_linear=0
shrinkage=0.1


Tree=6
num_leaves=16
num_cat=0
split_feature=185 146 2 51 185 124 59 107 185 198 107 3 206 187 192
split_gain=47204.6 15599.1 9507.08 9209.68 5760.14 4904.82 3244.84 3178.95 2129.9 1456.21 963.016 877.879 815.524 250.264 78.6343
threshold=-1.0000000180025095e-35 0.011678183157171517 1.0000000180025095e-35 1.0000000180025095e-35 0.91607661978496235 -1.1899131781801928 0.51181690953242087 -0.24781202498476704 0.99791979835409017 -0.029286235379864783 -0.014056623680147375 -0.82572629129239461 2.1857616462199001 1.2568482299093597 0.062500000000000014
decision_type=2 2 2 2 2 2 2 2 2 2 2 2 2 2 2
left_child=5 2 4 7 -2 6 10 -3 -4 -8 -1 12 -7 -13 -5
right_child=1 3 8 14 -6 11 9 -9 -10 -11 -12 13 -14 -15 -16
leaf_value=-0.091576239758435152 0.023259007303975315 0.057152840849104783 -0.067590191500255345 -0.020416733422587884 0.14813638813074292 -0.061623662435692277 -0.060990884209637899 0.13773278154621954 0.050364981487038767 0.054465998229285467 -0.024848040445793973 -0.094572309893126746 0.14429039412659123 -0.063011846460918106 -0.092664117720970537
leaf_weight=4785.3716805297881 19308.969775721431 6332.4875271050259 13419.650655758567 161.91876211576164 4567.4730430757627 8252.5303589720279 1371.7221768517047 21580.688280096278 1727.9378822110593 5364.7695148419589 3946.4061359530315 36233.149556797929 196.9275314155966 2699.7360126962885 2164.5783579116687
leaf_count=366434 951086 189431 954089 12973 107586 607508 71692 258832 77952 127093 194675 3326919 12116 187575 177315
internal_value=0 0.0496091 0.00783382 0.10352 0.0471476 -0.0700814 -0.0211887 0.119452 -0.0541346 0.030956 -0.0614178 -0.0860427 -0.0568245 -0.0923838 -0.0876359
internal_weight=0 69263.7 39024 30239.7 23876.4 62850.6 15468.3 27913.2 15147.6 6736.49 8731.78 47382.3 8449.46 38932.9 2326.5
internal_count=7623276 2729264 2090713 638551 1058672 4894012 759894 448263 1032041 198785 561109 4134118 619624 3514494 190288
is_linear=0
shrinkage=0.1


Tree=7
num_leaves=16
num_cat=0
split_feature=200 68 65 105 3 180 200 180 170 141 68 3 106 67 212
split_gain=29569.6 14517 10757.5 6775.6 4383.16 2032.91 1633.34 1211.41 915.669 1392.21 727.327 682.797 396.434 280.349 162.394
threshold=-1.0000000180025095e-35 -1.0000000180025095e-35 0.10804991553257612 1.0000000180025095e-35 -0.49902944212142569 -0.98238576194099114 1.0000000180025095e-35 -0.68436246331275563 1.0000000180025095e-35 3.6716519666362006 -0.0045984775841730616 -0.27034164770174746 -0.27786702713511208 1.005665900431542 1.688921391497147
decision_type=2 2 2 2 2 2 2 2 2 2 2 2 2 2 2
left_child=5 6 4 -4 -3 10 7 -2 12 -10 14 -12 -7 -8 -1
right_child=1 2 3 -5 -6 8 13 -9 9 -11 11 -13 -14 -15 -16
leaf_value=-0.071425177177132093 0.032666254167531307 0.05435798991156561 0.1095075107032151 0.016449991132758818 -0.022842748249734302 -0.020948683714476918 -0.087885152471768979 -0.046349355193679012 -0.038540363596085536 0.93645531827009121 0.080450832523701776 -0.030095333553290457 -0.090348771839814046 -0.032173225057085232 0.26160678943088483
leaf_weight=1154.9943563509732 2756.9348572771996 11272.58598017972 26894.072384379804 11034.578181538731 21158.206458229572 843.83859362546355 8457.1651520589367 6550.2942703142762 3399.2593943430111 14.70867825578898 1224.098711845465 1027.9212342882529 33487.242887148634 1011.2425026865676 14.829905648715792
leaf_count=89580 92374 331256 627445 432586 1060956 52438 791872 350992 244417 930 48963 71763 3345695 80689 970
internal_value=0 0.0254303 0.0462776 0.0824343 0.00399138 -0.0770404 -0.0526926 -0.0229438 -0.0837313 -0.0343397 -0.00323567 0.0299927 -0.088643 -0.081935 -0.0672033
internal_weight=0 89135.1 70359.4 37928.7 32430.8 41166.9 18775.6 9307.23 37745 3413.97 3421.84 2252.02 34331.1 9468.41 1169.82
internal_count=7622926 3768170 2452243 1060031 1392212 3854756 1315927 443366 3643480 245347 211276 120726 3398133 872561 90550
is_linear=0
shrinkage=0.1


Tree=8
num_leaves=16
num_cat=0
split_feature=68 3 107 65 124 121 180 51 170 5 162 3 224 187 126
split_gain=21504.6 14352.2 9642.44 5565.04 5017.7 3447.48 1698.43 1572.02 1040.29 721.582 555.743 547.531 431.021 241.689 65.1589
threshold=-1.0000000180025095e-35 1.0000000180025095e-35 -1.0000000180025095e-35 0.21895307754763674 -1.1899131781801928 1.0000000180025095e-35 -0.78370357272415248 1.0000000180025095e-35 1.0000000180025095e-35 -0.082962335822854935 -1.0000000180025095e-35 -0.43369007228723189 -0.056269888275722615 3.1063349767400674 5.0129812798216085
decision_type=2 2 2 2 2 2 2 2 2 2 2 2 2 2 2
left_child=6 2 5 -4 7 -2 9 -3 -6 13 14 -12 -11 -1 -8
right_child=1 4 3 -5 8 -7 10 -9 -10 12 11 -13 -14 -15 -16
leaf_value=-0.071407663358555848 -0.040176133815464268 0.039075792752183314 0.041762601330771622 0.11617883105113254 -0.070922717721139131 0.039632754286473136 -0.096549376414339555 -0.093674731513439885 0.024789874171545986 -0.051714257841202066 -0.046599713839051093 -0.085345414495257871 0.021348534415688035 0.1852787441474717 0.16921585560310212
leaf_weight=2505.6797053059563 13053.978912516497 7940.8167078513652 22693.938414431177 18035.771128611639 19619.702437961474 9246.2452113796026 14563.473928637803 1004.9341704715043 1205.339184558019 1128.0422248914838 6327.5355561701581 8610.1177507136017 2840.8931796541438 37.226783961988986 9.2310757394880039
leaf_count=223844 912721 203427 647195 389103 1751870 299590 1602373 101643 31567 85039 421314 826965 124455 1850 918
internal_value=0 0.0187464 0.0457739 0.0747153 -0.0384755 -0.00708532 -0.0722871 0.0241631 -0.0653829 -0.0260624 -0.0824872 -0.0689329 0.000582786 -0.0676499 -0.096381
internal_weight=0 92800.7 63029.9 40729.7 29770.8 22300.2 36022.2 8945.75 20825 6511.84 29510.4 14937.7 3968.94 2542.91 14572.7
internal_count=7623874 4337116 2248609 1036298 2088507 1212311 3286758 305070 1783437 435188 2851570 1248279 209494 225694 1603291
is_linear=0
shrinkage=0.1


Tree=9
num_leaves=16
num_cat=0
split_feature=200 107 105 65 200 146 2 180 190 187 188 23 187 216 3
split_gain=23190.5 9980.14 6650.3 5359.43 4176.94 2973.94 2063.86 1935.91 974.838 898.776 621.789 567.508 499.084 659.985 259.209
threshold=-1.0000000180025095e-35 -1.0000000180025095e-35 1.0000000180025095e-35 0.60711414460034885 1.0000000180025095e-35 1.0000000180025095e-35 -0.26197170892740473 -0.53535080659714906 -1.0737138998584603 1.829928630335776 0.6417605528178546 1.0198530699869479 1.2828973390196514 1.6209492993430332 -0.59703849687271637
decision_type=2 2 2 2 2 2 2 2 2 2 2 2 2 2 2
left_child=7 4 3 -3 5 -2 -4 8 11 -6 -10 -1 14 -14 -9
right_child=1 2 6 -5 9 -7 -8 12 10 -11 -12 -13 13 -15 -16
leaf_value=0.023974895777951883 -0.034177600889003172 0.046775243719399395 0.024805867013745389 0.13242627404359603 -0.075840583608249398 0.041616725327653585 -0.04745628410941969 -0.070643281152729318 -0.065623079599857054 0.14277705437684399 0.028948526962631217 0.37047994083808189 -0.039287305830122049 0.42544188566994579 -0.093749980409137457
leaf_weight=1926.3048882386647 10641.381468064152 33487.029450456612 8110.0527753559873 9344.069433204364 11413.67723292578 10080.865432236344 7709.6214767755009 6274.940866610501 4278.4253500262275 191.20362720172852 830.10556598985568 48.455376090016216 1495.4250612971373 31.196116686332971 21451.839506196789
leaf_count=110824 681474 839015 257700 205711 1115744 188764 467648 614687 403132 11909 52437 2157 127119 1538 2543457
internal_value=0 0.020407 0.0449964 0.0654609 -0.0242052 0.00269448 -0.0104107 -0.0740978 -0.0271905 -0.0722386 -0.0502558 0.0324772 -0.0854557 -0.0297907 -0.0885206
internal_weight=0 90977.9 58650.8 42831.1 32327.1 20722.2 15819.7 36336.7 7083.29 11604.9 5108.53 1974.76 29253.4 1526.62 27726.8
internal_count=7623316 3767965 1770074 1044726 1997891 870238 725348 3855351 568550 1127653 455569 112981 3286801 128657 3158144
is_linear=0
shrinkage=0.1


Tree=10
num_leaves=16
num_cat=0
split_feature=185 185 206 200 51 146 193 187 5 185 187 224 185 142 207
split_gain=33383 9658.09 7798.67 5181.85 2915.42 2700.22 2632.82 2542.09 1992.49 1261.58 542.728 406.436 288.716 264.98 205.475
threshold=-0.066041279132950131 0.42501764593484398 -1.0000000180025095e-35 -1.0000000180025095e-35 1.0000000180025095e-35 0.036042027966473732 -0.61125941083263147 0.60562050215206831 -0.0090934751085235983 -0.39341389584481279 2.507205467203359 -0.95157770297754884 -0.22604466835660958 -4.0892810343537684 -2.6026305630918043
decision_type=2 2 2 2 2 2 2 2 2 2 2 2 2 2 2
left_child=5 2 7 -4 6 10 -3 -2 13 -10 12 -12 -1 -7 -6
right_child=1 4 3 -5 14 8 -8 -9 9 -11 11 -13 -14 -15 -16
leaf_value=-0.093729771806546125 -0.062107019929639511 0.028283118263195274 -0.063395993826129454 0.059090679612413877 -0.076496812907450862 0.42160653921906477 0.10170853160778273 0.022071526984358134 -0.056139508804529753 0.014243152962591736 0.27269633055912407 -0.033375573536377046 -0.068615188739408112 -0.090663094497927421 0.076474757838037463
leaf_weight=26288.333895118907 14760.278229827061 6226.381382141728 4050.9388472172432 23433.905422156211 1234.376319036819 10.118608258198945 22641.921319073997 4739.3609199915081 4107.9757681740448 6701.0560290850699 44.991597552318126 1215.4016614002176 5542.4826129036956 4850.0419463017024 94.533384867012501
leaf_count=3004747 1073613 133790 419342 762193 116405 903 423301 120039 166264 208008 2063 66144 579004 540595 6939
internal_value=0 0.0350806 0.00672137 0.0410376 0.0792054 -0.0706151 0.085872 -0.0416475 -0.0364173 -0.0125058 -0.0868084 -0.0224499 -0.0893567 -0.0895966 -0.065615
internal_weight=0 77181.7 46984.5 27484.8 30197.2 48760.4 28868.3 19499.6 15669.2 10809 33091.2 1260.39 31830.8 4860.16 1328.91
internal_count=7623350 3055622 2375187 1181535 680435 4567728 557091 1193652 915770 374272 3651958 68207 3583751 541498 123344
is_linear=0
shrinkage=0.1


Tree=11
num_leaves=16
num_cat=0
split_feature=0 185 200 2 185 0 185 2 97 0 103 103 0 185 0
split_gain=70687.1 11097.3 6149.65 5140.59 1137.85 980.355 1461.29 1225.15 926.325 673.189 440.907 95.5999 13.1493 60.1175 0.898123
threshold=0.01531498015873016 -0.22604466835660958 0.0086498333894669405 -0.78284674455865644 -0.48207733116431389 0.017175099206349211 0.42501764593484398 -0.78284674455865644 0.1719177041489324 0.0071304563492063499 1.4740247960196819 1.5208447466457484 0.017423115079365083 0.42501764593484398 0.017795138888888892
decision_type=2 2 2 2 2 2 2 2 2 2 2 2 2 2 2
left_child=1 4 3 -3 10 6 11 -8 -4 -6 -1 -2 13 -7 -14
right_child=5 2 8 -5 9 12 7 -9 -10 -11 -12 -13 14 -15 -16
leaf_value=-0.069707392607489538 -0.086889387811235064 0.11597488907859342 0.23514949607232874 0.048863600993870299 0.024847535085088041 -0.10209974131620725 0.30901259089700361 0.0090009020955971498 0.039170779574497078 -0.041070087337703114 0.30534496332104705 0.17370969572040926 -0.096482966277896487 0.0074072004638919388 -0.10099819342010814
leaf_weight=5297.3049151394516 2116.4017624575645 15374.936475562397 2573.329463405069 44298.552876920905 3464.2912480169907 254.30109328450635 172.09398913290352 651.11552595160902 266.12447228515521 2802.7210721867159 31.531222352292389 14.171313467901198 444.74283025972545 62.441971158608794 46516.634282883257
leaf_count=282799 167932 176519 48138 909105 95574 22515 2924 21862 7476 139392 1779 1227 38554 3204 5704920
internal_value=0 0.0563303 0.0729966 0.0661549 -0.0335174 -0.0973266 -0.0414355 0.0717191 0.216782 -0.00463202 -0.0674882 -0.085156 -0.100818 -0.0805118 -0.100955
internal_weight=0 74108.8 62512.9 59673.5 11595.8 50231.9 2953.78 823.21 2839.45 6267.01 5328.84 2130.57 47278.1 316.743 46961.4
internal_count=7623920 1660782 1141238 1085624 519544 5963138 193945 24786 55614 234966 284578 169159 5769193 25719 5743474
is_linear=0
shrinkage=0.1


Tree=12
num_leaves=16
num_cat=0
split_feature=0 185 0 2 65 200 193 0 185 2 162 2 0 185 0
split_gain=60951.5 8836.16 6487.87 3289.34 2904.78 2725.66 2561.12 1408.67 1571.72 617.677 529.899 115.757 20.0769 78.1106 0.873016
threshold=0.01494295634920635 0.17948820779210903 0.0037822420634920635 -0.56687416880911301 0.49621098258528828 0.0086498333894669405 -0.61125941083263147 0.017175099206349211 0.42501764593484398 -0.46524001551521027 -0.41268166358272346 -0.71932539874996715 0.017423115079365083 0.42501764593484398 0.017795138888888892
decision_type=2 2 2 2 2 2 2 2 2 2 2 2 2 2 2
left_child=1 2 4 -4 -1 6 -3 8 11 -10 -7 -2 13 -9 -14
right_child=7 5 3 -5 -6 10 -8 12 9 -11 -12 -13 14 -15 -16
leaf_value=0.040030835534372269 -0.048453930190882927 0.02211975492732831 0.026863723933804564 -0.049250513986355847 0.13325999656279847 0.32992491759197806 0.092609542585343624 -0.10183358839503098 0.12823822963238646 -0.018835330717358725 0.17475115364644581 -0.09548447790877479 -0.096236682524853873 0.022888354449731762 -0.10090383487254161
leaf_weight=13050.48809102457 759.24971155868843 6388.8528704112396 9922.7000177330337 13271.93190203188 4492.4863933138549 246.29131341911852 26675.980747322552 230.56336060538888 623.54282932542264 526.81671967357397 2066.8633056338876 1684.3493834645487 404.64208643231541 64.194785230793059 42115.45316691976
leaf_count=277503 45835 73395 261585 653850 75943 2863 253126 22598 9887 20296 23000 157620 38549 3249 5703804
internal_value=0 0.0497693 0.0180178 -0.0166887 0.0639054 0.0863309 0.0789894 -0.0956314 -0.0354981 0.0608847 0.191273 -0.0808716 -0.100679 -0.0746706 -0.100859
internal_weight=0 76115.6 40737.6 23194.6 17543 35378 33064.8 46408.8 3593.96 1150.36 2313.15 2443.6 42814.9 294.758 42520.1
internal_count=7623103 1621265 1268881 915435 353446 352384 326521 6001838 233638 30183 25863 203455 5768200 25847 5742353
is_linear=0
shrinkage=0.1


Tree=13
num_leaves=16
num_cat=0
split_feature=200 85 206 105 3 180 71 170 124 43 207 200 96 92 40
split_gain=12838.2 5414.53 5062.86 2813.42 2378.34 1977.09 973.709 742.644 611.021 809.643 535.736 346.178 583.066 262.186 101.299
threshold=-1.0000000180025095e-35 -1.0000000180025095e-35 -1.0000000180025095e-35 1.0000000180025095e-35 -0.27034164770174746 -0.51051554034653301 0.46782457525627924 1.0000000180025095e-35 -1.1899131781801928 2.4023170503942235 -2.655516276084346 1.0000000180025095e-35 1.9521062851002755 4.294015556264883 -1.0587046533568367
decision_type=2 2 2 2 2 2 2 2 2 2 2 2 2 2 2
left_child=5 11 4 -4 -3 6 7 -1 9 -7 -8 12 -2 -10 -13
right_child=1 2 3 -5 -6 8 10 -9 13 -11 -12 14 -14 -15 -16
leaf_value=-0.048258241406344667 -0.041504526226319949 0.011027848668768402 0.054079133049227103 0.0027098468801167405 -0.041342550519741332 -0.049311427199645624 0.23091071474316505 0.049052554785850799 -0.087858211700520009 0.27516766360918093 0.040575690327571273 0.12895266476478992 0.51455455955831297 0.55089126330559968 -0.094382605032013608
leaf_weight=4550.659010947682 1142.2722316114232 21720.333141548559 36245.887755898293 15104.839158445597 14434.515345076565 3469.1518430165015 192.42439049854875 947.55930154258385 17528.174538598396 78.642161773052067 638.84227360226214 20.399055704474449 19.173681573476642 6.4284769902005783 4600.2971826074645
leaf_count=498456 77749 671221 809093 659073 910636 432096 9901 44665 2822833 2796 42864 2360 1314 749 638086
internal_value=0 0.0125927 0.0187856 0.0389688 -0.00988059 -0.065251 -0.0162371 -0.0314878 -0.0799663 -0.0421189 0.0846351 -0.0811293 -0.0323248 -0.087624 -0.0933966
internal_weight=0 93287.7 87505.6 51350.7 36154.8 27411.9 6329.48 5498.22 21082.4 3547.79 831.267 5782.14 1161.45 17534.6 4620.7
internal_count=7623892 3769532 3050023 1468166 1581857 3854360 595886 543121 3258474 434892 52765 719509 79063 2823582 640446
is_linear=0
shrinkage=0.1


Tree=14
num_leaves=16
num_cat=0
split_feature=200 222 51 65 180 180 3 200 190 124 51 146 71 184 186
split_gain=11158.1 5466.28 4359.52 3175.68 1976.52 1846.84 1297.25 808.86 736.466 623.31 864.004 549.288 395.567 319.719 180.377
threshold=-1.0000000180025095e-35 -1.0000000180025095e-35 1.0000000180025095e-35 0.21895307754763674 -0.85820938627897825 -0.53535080659714906 1.0000000180025095e-35 0.043444376993201507 -1.0737138998584603 -1.1899131781801928 1.0000000180025095e-35 0.06040598895175197 -0.20303566338011045 -1.9794183705498816 3.7199588619596775
decision_type=2 2 2 2 2 2 2 2 2 2 2 2 2 2 2
left_child=5 4 3 -3 7 8 -6 -2 12 10 -7 -10 -1 -11 -4
right_child=1 2 14 -5 6 9 -8 -9 11 13 -12 -13 -14 -15 -16
leaf_value=-0.030225447725584373 0.046954359804530055 0.011590471269899275 -0.085005658018710448 0.056108121141414571 -0.023912437737285332 0.0033378623708743777 -0.077176954115770469 -0.030085350710555864 -0.060793380100934213 0.26778973991069271 -0.097585986060002794 0.021489222432428581 0.068056763259263922 -0.08674787327106169 0.26583834948298213
leaf_weight=598.81371041340753 4117.0866121780127 35170.125926502515 3434.7445254088379 29435.171384304762 12446.603909883182 1997.8619701503776 7227.6353138675913 2037.1863813423552 2982.8917369241826 25.475647244602442 1474.1631979327649 1114.4089940385893 1295.4346899343655 16218.831172126345 14.716661370359359
leaf_count=46503 150461 893382 433622 597186 772080 190551 735747 185425 368076 2692 250664 87823 65995 2840927 1956
internal_value=0 0.0111598 0.0260251 0.0318734 -0.0280082 -0.0631964 -0.04348 0.0214527 -0.0145753 -0.0779717 -0.0395127 -0.0384137 0.0369876 -0.0861919 -0.0835088
internal_weight=0 93883.3 68054.8 64605.3 25828.5 25707.9 19674.2 6154.27 5991.55 19716.3 3472.03 4097.3 1894.25 16244.3 3449.46
internal_count=7623090 3769859 1926146 1490568 1843713 3853231 1507827 335886 568397 3284834 441215 455899 112498 2843619 435578
is_linear=0
shrinkage=0.1


Tree=15
num_leaves=15
num_cat=0
split_feature=185 51 2 185 124 124 216 185 170 78 225 185 185 192
split_gain=18677.4 5651.29 4800.66 2969.02 2248.45 1799.11 753.744 668.265 538.385 312.889 255.661 242.517 217.291 111.996
threshold=-0.18430465801846574 1.0000000180025095e-35 0.093747827601254982 1.3252924150659531 -0.65988968638539236 -1.1899131781801928 -1.0000000180025095e-35 -0.48207733116431389 1.0000000180025095e-35 4.2166379065676525 -1.1996798793819765 5.253764108302251 -0.39341389584481279 0.97916666666666674
decision_type=2 2 2 2 2 2 2 2 2 2 2 2 2 2
left_child=5 2 3 -2 -4 6 13 -8 9 -7 -3 -12 -10 -1
right_child=1 10 4 -5 -6 8 7 -9 12 -11 11 -13 -14 -15
leaf_value=-0.097380054262529395 0.030953489925526458 0.3767699531645668 0.021073220495450098 0.092953326234007344 -0.049912133926042247 -0.088427807737621544 -0.062589822847064755 -0.0027602202140367248 -0.068957212702675061 0.25768387954538546 -0.083886628114915832 0.42951858384609037 -0.0037789277491278709 0.15230806915228268
leaf_weight=1655.2977867093869 52490.437695410568 12.125567574985324 7999.8095671315677 9056.4416416292079 10090.514044953045 21191.726002794225 2711.1136597744189 5995.1625490207225 964.11648256611079 26.151323458645493 5074.3787878095172 9.2174315727315825 1089.4905794770457 18.161327507346869
leaf_count=257010 1539048 1551 161894 106164 869305 3470813 145675 205995 59982 2295 758365 274 42621 2685
internal_value=0 0.0202328 0.0267655 0.0400766 -0.0185214 -0.067827 -0.0332054 -0.021391 -0.0832692 -0.0880012 -0.0818618 -0.0829557 -0.0343785 -0.0946703
internal_weight=0 84732.9 79637.2 61546.9 18090.3 33651.2 10379.7 8706.28 23271.5 21217.9 5095.72 5083.6 2053.61 1673.46
internal_count=7623677 3436601 2676411 1645212 1031199 4187076 611365 351670 3575711 3473108 760190 758639 102603 259695
is_linear=0
shrinkage=0.1


Tree=16
num_leaves=16
num_cat=0
split_feature=0 185 212 202 170 78 212 217 0 185 2 78 0 185 203
split_gain=43682 6051.95 4203.56 3547.62 974.895 517.216 1088.08 542.259 222.062 421.553 717.237 6.82862 1.70196 9.72241 0.822891
threshold=0.016431051587301591 -0.29793020377493845 0.13174750923452391 1.0000000180025095e-35 1.0000000180025095e-35 2.5889279982298112 0.13174750923452391 -0.18308662202588091 0.017423115079365083 0.42501764593484398 -0.82095955204387006 2.7923916154981598 0.017795138888888892 0.42501764593484398 1.0000000180025095e-35
decision_type=2 2 2 2 2 2 2 2 2 2 2 2 2 2 2
left_child=1 5 3 -3 -4 7 -7 -1 9 11 -11 -2 13 -10 -14
right_child=8 2 4 -5 -6 6 -8 -9 12 10 -12 -13 14 -15 -16
leaf_value=-0.012156184199845469 -0.0975956957497639 0.03447915318736252 0.20197883988517307 0.15833692116717202 0.10133587702223866 0.027602413227997138 0.74011235343477166 -0.063610307166177688 -0.10183513031919743 0.31259054492754196 -0.036925733229030901 -0.025578753752340207 -0.10072756045902392 -0.059749352483736834 -0.10495758802944054
leaf_weight=3176.6944179930724 831.63190326653421 67232.643826978747 1707.6845866143703 2394.924009218812 2205.5749357976019 156.05226958589628 24.845152195077389 5765.4251180044375 289.09278126899153 72.846283590421081 302.59695849195123 13.378094598650931 32391.163088710979 67.756492652930319 466.515646756161
leaf_count=135835 89162 1199992 36485 36653 18243 7437 880 342074 33887 1341 11760 1041 5648770 4780 55236
internal_value=0 0.0348773 0.0444073 0.0387394 0.145255 -0.0419446 0.125461 -0.0453312 -0.0991737 -0.0572807 0.03089 -0.0964555 -0.100713 -0.0938441 -0.100788
internal_weight=0 82663.8 73540.8 69627.6 3913.26 9123.02 180.897 8942.12 34435 1220.45 375.443 845.01 33214.5 356.849 32857.7
internal_count=7623576 1777599 1291373 1236645 54728 486226 8317 477909 5845977 103304 13101 90203 5742673 38667 5704006
is_linear=0
shrinkage=0.1


Tree=17
num_leaves=16
num_cat=0
split_feature=0 185 0 96 195 193 50 224 0 185 2 103 0 185 203
split_gain=38351.4 5218.38 4942.67 2604.6 2155.27 1956.77 1404.62 681.946 236.237 388.346 420.207 8.48281 0.891441 6.13336 0.645772
threshold=0.016431051587301591 0.17948820779210903 0.007502480158730159 -1.0406960210313883 -0.20381344621046241 0.3522695739009517 -0.044546567261285995 -0.61944735963183828 0.017423115079365083 0.42501764593484398 -0.66850832210301581 1.1772351282986533 0.017795138888888892 0.58870400307309956 1.0000000180025095e-35
decision_type=2 2 2 2 2 2 2 2 2 2 2 2 2 2 2
left_child=1 2 3 -1 7 -6 -4 -3 9 11 -11 -2 13 -10 -14
right_child=8 4 6 -5 5 -7 -8 -9 12 10 -12 -13 14 -15 -16
leaf_value=0.20237082030983677 -0.096511331653315061 0.25127242852702381 -0.0038968976015324678 0.025310240905055986 0.029519528773221278 0.074711674648027457 -0.066947834099012699 0.12141435464604865 -0.10142108611605515 0.16979733948644768 -0.049555213354815712 0.0031643155257473823 -0.10065906438135941 -0.063897897073585605 -0.10458498186083043
leaf_weight=855.72132100863382 762.94912554393522 539.51465499540791 6038.0150731764734 28529.229418114293 20021.916048706975 18373.181833408307 8517.3539899345487 1614.788346002344 274.01120506948791 134.94582245219499 247.52142909541726 8.634742498630656 29324.907035961282 51.79530536942184 425.05656133615412
leaf_count=16883 89201 6174 198600 641816 196992 162375 534494 20056 34855 2498 10576 1053 5647714 3722 55453
internal_value=0 0.0307358 0.00686173 0.0304664 0.0566063 0.0511453 -0.0407924 0.153935 -0.0989545 -0.0545543 0.0278389 -0.0953959 -0.100658 -0.0954558 -0.100715
internal_weight=0 84489.7 43940.3 29385 40549.4 38395.1 14555.4 2154.3 31229.8 1154.05 382.467 771.584 30075.8 325.807 29750
internal_count=7622462 1777390 1391793 658699 385597 359367 733094 26230 5845072 103328 13074 90254 5741744 38577 5703167
is_linear=0
shrinkage=0.1


Tree=18
num_leaves=16
num_cat=0
split_feature=0 1 65 212 0 170 97 206 0 1 103 3 0 190 203
split_gain=33678 3712.81 2885.55 2090.8 1237.85 1159.2 1020.72 812.828 255.238 131.36 102.799 30.0747 2.41133 7.10118 0.508443
threshold=0.016431051587301591 -0.52362330251801092 0.71801730661540952 0.82408771482591447 0.0086185515873015896 1.0000000180025095e-35 -0.10147831977083742 1.0554313081293782 0.017423115079365083 -0.39907149147593945 0.71697272304267423 -1.250432195214654 0.017795138888888892 -2.2368681704148878 1.0000000180025095e-35
decision_type=2 2 2 2 2 2 2 2 2 2 2 2 2 2 2
left_child=1 4 3 -3 5 -1 -4 -6 9 10 -2 -11 13 -10 -14
right_child=8 2 6 -5 7 -7 -8 -9 12 11 -12 -13 14 -15 -16
leaf_value=0.10062762045652143 -0.021431770438637865 -0.00051543469868830919 0.1203594636112244 0.22640202708911961 0.013057954480339556 0.049307625482806414 0.043202565683180566 0.080395870575107442 -0.0057634177108650507 0.043534909349403558 0.25814925195986616 -0.087464044408070762 -0.10059672854378397 -0.094381285847624397 -0.10426363902221265
leaf_weight=8214.9976886417717 492.95898869424127 45980.495370965917 2075.2624653184321 409.66549082100391 7570.6064607228618 9480.9021422970109 9864.8720011017285 2348.7156256784219 9.3346427208743972 18.080790449399501 13.511929596308617 570.45516428397968 26554.833554862766 288.92092481045984 383.59230840345845
leaf_count=141964 36827 1099467 38172 8075 196698 71926 182039 40182 762 768 964 64976 5648096 38054 55089
internal_value=0 0.0270734 0.0127723 0.00148844 0.0572807 0.073132 0.0566129 0.0290024 -0.0986468 -0.0513093 -0.0139729 -0.0834395 -0.10055 -0.0916078 -0.100649
internal_weight=0 85945.5 58330.3 46390.2 27615.2 17695.9 11940.1 9919.32 28331.7 1095.01 506.471 588.536 27236.7 298.256 26938.4
internal_count=7624059 1778523 1327753 1107542 450770 213890 220211 236880 5845536 103535 37791 65744 5742001 38816 5703185
is_linear=0
shrinkage=0.1


Tree=19
num_leaves=16
num_cat=0
split_feature=0 185 178 95 179 50 58 112 0 185 1 112 0 185 203
split_gain=29759 4298.65 3276.7 2654.77 904.073 385.66 524.674 327.836 215.341 317.037 208.704 6.12708 2.53701 11.9328 0.38513
threshold=0.016431051587301591 -0.39341389584481279 0.19736652715464856 -0.37925675494576044 -0.92958504055111379 -0.42286427213050221 -0.8275249467607827 0.36720450273615562 0.017423115079365083 0.42501764593484398 -0.46134739699697519 1.0244762799223841 0.017795138888888892 0.42501764593484398 1.0000000180025095e-35
decision_type=2 2 2 2 2 2 2 2 2 2 2 2 2 2 2
left_child=1 5 3 -3 -4 6 -1 -7 9 11 -11 -2 13 -10 -14
right_child=8 2 4 -5 -6 7 -8 -9 12 10 -12 -13 14 -15 -16
leaf_value=0.2299397016271065 -0.096157817893570779 0.085431280213102936 0.1404493466217259 0.012436465507022251 0.059902113015359582 -0.069681523660712771 -0.024361554687641816 0.14901115034126941 -0.10143960460769592 0.10722450849751659 -0.044784370182202583 -0.0066760969458525068 -0.10053986297157616 -0.049242558944166875 -0.10388975969029193
leaf_weight=85.449733580928296 657.52924215816893 5469.9192048218101 1512.3076438596472 55907.318160295021 17735.334776908858 4987.9354796770494 1605.658084184397 69.502182154683396 216.05031799362041 158.3049564328976 210.322389902547 7.7422801835928103 24043.771170993103 54.933857152704149 348.16792539390735
leaf_count=2176 89424 101790 16431 1051918 207045 327818 67171 3616 33690 3354 9621 617 5648353 4773 55151
internal_value=0 0.0238139 0.0302311 0.0189417 0.0662308 -0.0528526 -0.011512 -0.0666761 -0.0986065 -0.0538962 0.020495 -0.0951164 -0.100481 -0.0908582 -0.100588
internal_weight=0 87373.4 80624.9 61377.2 19247.6 6748.55 1691.11 5057.44 25696.8 1033.9 368.627 665.272 24662.9 270.984 24391.9
internal_count=7622948 1777965 1377184 1153708 223476 400781 69347 331434 5844983 103016 12975 90041 5741967 38463 5703504
is_linear=0
shrinkage=0.1


Tree=20
num_leaves=16
num_cat=0
split_feature=0 185 0 54 8 179 2 8 0 185 2 0 185 228 170
split_gain=26446.4 3687.96 4049.88 2427.33 1775.29 1279.71 926.061 872.132 98.1731 179.688 206.187 2.6292 11.8934 0.4472 0.175687
threshold=0.0168030753968254 0.17948820779210903 0.0086185515873015896 0.19892450611682058 -0.012220519254975736 -0.92958504055111379 -0.71932539874996715 -0.093395554720015997 0.017423115079365083 0.42501764593484398 -0.78284674455865644 0.017795138888888892 2.2255671841970619 0.19779686743987523 1.0000000180025095e-35
decision_type=2 2 2 2 2 2 2 2 2 2 2 2 2 2 2
left_child=1 2 3 -1 7 -6 -4 -3 9 13 -11 12 -10 -2 -13
right_child=8 4 6 -5 5 -7 -8 -9 11 10 -12 14 -14 -15 -16
leaf_value=0.010899309598193529 -0.10127873742660685 0.086537036838051251 -0.012311552559511449 0.10647860077528666 0.12748946649867612 0.032192300517462878 -0.069681441672412761 0.21822782096015075 -0.093949755775507252 0.16055407219146778 -0.051973842788024673 -0.10043844782269172 0.037011859131988172 -0.075376599097089034 -0.10139325393545046
leaf_weight=30852.736865868792 365.01954800332896 3268.1466961482074 4474.1759121732321 2907.4478705339134 1463.731229245197 37775.202308303444 7581.2651023108047 594.34285794664174 241.39777954760939 66.420360199175775 145.96832572622225 19951.703783300705 7.1396124027669421 6.7894401969388118 2133.1619021361694
leaf_count=705593 55895 42510 148193 44065 10979 333447 524696 6309 38091 1035 7051 5355898 475 531 348599
internal_value=0 0.0211174 0.0013641 0.0191307 0.0421146 0.0357472 -0.0483896 0.106801 -0.099357 -0.0588892 0.0144901 -0.100416 -0.0901877 -0.100806 -0.100531
internal_weight=0 88917 45815.6 33760.2 43101.4 39238.9 12055.4 3862.49 22917.6 584.198 212.389 22333.4 248.537 371.809 22084.9
internal_count=7623367 1815792 1422547 749658 393245 344426 672889 48819 5807575 64512 8086 5743063 38566 56426 5704497
is_linear=0
shrinkage=0.1


Tree=21
num_leaves=15
num_cat=0
split_feature=0 185 1 202 200 126 50 0 185 3 0 185 217 203
split_gain=23381 3170.81 2619.37 2755.2 695.09 502.858 334.99 96.1458 155.698 118.373 3.91701 15.7777 0.814609 0.227695
threshold=0.0168030753968254 -0.39341389584481279 -0.64817511356008239 1.0000000180025095e-35 -1.0000000180025095e-35 3.0048965992612406 -0.33198657646758989 0.017423115079365083 0.42501764593484398 -0.79305660637529773 0.017795138888888892 0.42501764593484398 -0.98599448709311976 1.0000000180025095e-35
decision_type=2 2 2 2 2 2 2 2 2 2 2 2 2 2
left_child=1 5 4 -4 -3 6 -1 8 12 -10 11 -9 -2 -12
right_child=7 2 3 -5 -6 -7 -8 10 9 -11 13 -13 -14 -15
leaf_value=-0.016944168268085775 -0.072434419721403742 0.12524566792282729 0.010283482210460902 0.1400950354152396 0.050196530536134355 0.50478252797369272 -0.066078246207309344 -0.1011562992557834 0.10364625195469623 -0.050172842609090267 -0.10044184712490607 -0.037372291788906088 -0.10109005076994011 -0.10328253340974312
leaf_weight=2029.6929623980541 10.233972941758109 1320.4787409885321 61556.69655292714 1679.6444127787836 18865.315591507591 16.348117772489786 4386.360924806213 178.57004878344014 81.811755494680256 128.78752801800147 19702.996551424731 49.540073062526062 323.7709040036425 286.26678726449609
leaf_count=85342 1652 26965 1126441 23780 226863 487 326305 33898 1550 6458 5649593 4807 54573 55198
internal_value=0 0.0185266 0.0237429 0.0137315 0.055106 -0.0491235 -0.0505349 -0.099217 -0.0577547 0.00958144 -0.100334 -0.0873039 -0.100212 -0.100483
internal_weight=0 89854.5 83422.1 63236.3 20185.8 6432.4 6416.05 20762 544.604 210.599 20217.4 228.11 334.005 19989.3
internal_count=7623912 1816183 1404049 1150221 253828 412134 411647 5807729 64233 8008 5743496 38705 56225 5704791
is_linear=0
shrinkage=0.1


Tree=22
num_leaves=16
num_cat=0
split_feature=0 185 0 206 229 193 206 65 0 185 2 0 185 103 170
split_gain=20838.7 3034.4 3584.99 2278.25 1382.61 1388.73 750.404 603.831 123.46 178.786 145.044 2.57198 9.84789 0.653552 0.107861
threshold=0.0168030753968254 0.26133133757891264 0.0093625992063492078 -0.28986977568420574 1.0000000180025095e-35 0.3522695739009517 1.1525149062693316 1.1616299546756521 0.017423115079365083 0.42501764593484398 -0.66850832210301581 0.017795138888888892 0.42501764593484398 1.0462983143104172 1.0000000180025095e-35
decision_type=2 2 2 2 2 2 2 2 2 2 2 2 2 2 2
left_child=1 2 3 -1 5 -3 -4 -6 9 13 -11 12 -10 -2 -13
right_child=8 4 6 -5 7 -7 -8 -9 11 10 -12 14 -14 -15 -16
leaf_value=-0.02486287042331882 -0.10032114269315358 0.025498300533112639 -0.060264988622087602 0.029390726373305059 -0.022245587399974665 0.065175096959630571 0.011329233843042921 0.10464308045057927 -0.10105025541882423 0.11115039342458813 -0.055291036168593391 -0.10035876982193709 -0.049229277916830093 -0.065348106644904036 -0.10118510205948966
leaf_weight=10631.440266808495 299.75369217549451 18887.279526078142 9571.6798774080817 28459.801467409357 4628.4104332383722 16552.6024851806 1728.3460495015606 408.10076759336516 161.4329797658138 95.556342374533415 115.81360757350922 16341.183719141874 47.450904027326033 5.4403228028677395 1748.6730170531664
leaf_count=311447 55456 171440 565954 526293 37998 130761 70273 3755 33861 1527 6550 5354579 4792 804 348236
internal_value=0 0.0166729 0.000295086 0.0146357 0.0370624 0.0440298 -0.0493146 -0.011964 -0.0989502 -0.0507381 0.019954 -0.100311 -0.0892784 -0.0996977 -0.100439
internal_weight=0 90867.7 50391.3 39091.2 40476.4 35439.9 11300 5036.51 18815.3 516.564 211.37 18298.7 208.884 305.194 18089.9
internal_count=7623726 1817921 1473967 837740 343954 302201 636227 41753 5805805 64337 8077 5741468 38653 56260 5702815
is_linear=0
shrinkage=0.1


Tree=23
num_leaves=16
num_cat=0
split_feature=0 185 50 1 187 54 162 206 0 185 3 0 147 185 0
split_gain=18563.8 2656.4 2537.65 2151.77 733.923 710.546 469.582 383.054 117.426 146.204 83.5723 2.84197 11.0744 1.28061 0.0365422
threshold=0.0168030753968254 1.3252924150659531 -0.4981821526898787 -0.71045101908111818 -0.60696550705811492 0.58906912518440391 -0.42612782697423007 0.73875372058901745 0.017423115079365083 0.42501764593484398 -0.92373534604368535 0.017795138888888892 0.69616612346319506 0.31979075781147881 0.025607638888888892
decision_type=2 2 2 2 2 2 2 2 2 2 2 2 2 2 2
left_child=1 2 5 -4 7 -1 -6 -3 9 13 -11 12 -10 -2 -13
right_child=8 4 3 -5 6 -7 -8 -9 11 10 -12 14 -14 -15 -16
leaf_value=0.033684271451296058 -0.1007001378225322 0.17728707959648962 0.033984769820525923 -0.011995334690900443 0.11234718633229544 0.10005968406568524 0.042722892821138281 0.068256221319987528 -0.092094254626652258 0.09608989554890697 -0.034321079798845876 -0.10070971712540655 0.058325392802134259 -0.070668181234313676 -0.10032582223901204
leaf_weight=17191.323126549833 261.65746728610247 722.85413892753422 12988.306025736965 47036.234679130139 1071.5901309307665 1779.7572216393892 10089.059722523205 581.39452922344208 186.67015699506737 74.813395165838301 143.19498021202162 3046.1849906609859 5.0263060287106773 15.01340026850812 13329.340368996956
leaf_count=221140 54736 5235 233650 1239778 10644 34709 68691 4029 37541 1093 7031 781980 1014 1613 4920222
internal_value=0 0.0147999 0.00803017 -0.00204601 0.0577029 0.0399112 0.0494079 0.128684 -0.098822 -0.0508121 0.0104317 -0.100256 -0.0881502 -0.0990705 -0.100397
internal_weight=0 91460.5 78995.6 60024.5 12464.9 18971.1 11160.6 1304.25 17061.9 494.679 218.008 16567.2 191.696 276.671 16375.5
internal_count=7623106 1817876 1729277 1473428 88599 255849 79335 9264 5805230 64473 8124 5740757 38555 56349 5702202
is_linear=0
shrinkage=0.1


Tree=24
num_leaves=16
num_cat=0
split_feature=0 185 65 1 193 185 190 47 0 185 3 0 185 203 170
split_gain=16605.8 2386.79 2257.54 2185.27 767.256 342.296 347.582 272.846 24.5777 37.2274 27.4301 3.72231 13.3222 0.0946154 0.0106149
threshold=0.017175099206349211 -0.39341389584481279 0.9952752116530611 -0.14996786939179643 -0.61125941083263147 -0.63894338276987195 -2.2368681704148878 2.5657249956714812 0.017423115079365083 0.42501764593484398 -0.76038692145820075 0.017795138888888892 0.42501764593484398 1.0000000180025095e-35 1.0000000180025095e-35
decision_type=2 2 2 2 2 2 2 2 2 2 2 2 2 2 2
left_child=1 5 3 -3 -4 7 -7 -1 9 14 -11 12 -10 -13 -2
right_child=8 2 4 -5 -6 6 -8 -9 11 10 -12 13 -14 -15 -16
leaf_value=-0.088333568593242776 -0.1004479474210651 0.025348915116082928 0.018806414123455337 -0.0094095484419863921 0.076203241960581786 0.083816756337467213 -0.038931274286905279 0.32020926051380766 -0.10093070895472359 0.070136902422867659 -0.059751815390764199 -0.10032765537768557 -0.035926302695695807 -0.1024523079642668 -0.10310165078240195
leaf_weight=1727.4931281767786 76.553965006256476 44374.664943213109 3301.2131602594163 30533.662591671338 7907.9616209936794 244.16199794306885 4180.9310703686206 16.50330661656335 134.80121986602899 28.739208919927478 37.439102425705642 14616.413340220228 41.152524121338502 212.64666315424256 18.769016287755221
leaf_count=145073 20774 584650 49227 692849 105147 10215 267144 744 33829 662 2541 5649637 4770 55153 1656
internal_value=0 0.0131397 0.017444 0.0111809 0.0592993 -0.0469462 -0.0321584 -0.0844676 -0.0997689 -0.0609666 -0.00334513 -0.100187 -0.0857273 -0.100358 -0.10097
internal_weight=0 92286.6 86117.5 74908.3 11209.2 6169.09 4425.09 1744 15166.5 161.501 66.1783 15005 175.954 14829.1 95.323
internal_count=7624071 1855049 1431873 1277499 154374 423176 277359 145817 5769022 25633 3203 5743389 38599 5704790 22430
is_linear=0
shrinkage=0.1


Tree=25
num_leaves=16
num_cat=0
split_feature=0 212 185 65 179 212 185 162 0 185 2 0 185 41 203
split_gain=14828.2 2166.6 2232.06 1997.7 704.332 566.393 528.315 436.196 115.855 123.292 85.4204 5.12521 16.8866 1.76004 0.0753744
threshold=0.0168030753968254 1.0000000180025095e-35 1.3252924150659531 0.21895307754763674 -0.18559806844495788 1.0313697406689164 0.42501764593484398 -1.0000000180025095e-35 0.017423115079365083 0.42501764593484398 -0.66850832210301581 0.017795138888888892 0.42501764593484398 0.36406271550507141 1.0000000180025095e-35
decision_type=2 2 2 2 2 2 2 2 2 2 2 2 2 2 2
left_child=1 2 3 -1 -4 6 -3 -7 9 13 -11 12 -10 -2 -13
right_child=8 5 4 -5 -6 7 -8 -9 11 10 -12 14 -14 -15 -16
leaf_value=-0.013535483389136134 -0.099782571661954311 0.041943390607781045 0.13957517725272589 0.019629462700042066 0.040711834443872198 0.32474119206029056 0.1509969315301003 0.10979793735640773 -0.10083101490200114 0.064802269257468112 -0.059603872467408892 -0.10029633865339559 -0.025465623738135504 -0.036458145183602679 -0.1022819088236821
leaf_weight=41126.073856347939 237.04669218207709 4415.562999418471 767.65992450900376 32527.141759722494 11760.170516864397 102.14796547591686 493.92827708087862 1246.9073475708719 121.29676977382042 114.33421237953007 106.69840733055025 13219.286418059375 39.383292632875964 4.471950198407284 193.99038986151572
leaf_count=1078564 55543 71861 4583 561209 82525 2035 2635 14501 33726 1525 6462 5646068 4737 733 55156
internal_value=0 0.0118739 0.00774826 0.001111 0.0467698 0.0686845 0.0529149 0.126073 -0.0984353 -0.0492198 0.00474807 -0.100112 -0.0823587 -0.0986101 -0.100325
internal_weight=0 92439.6 86181 73653.2 12527.8 6258.55 4909.49 1349.06 14036.5 462.551 221.033 13574 160.68 241.519 13413.3
internal_count=7621863 1817913 1726881 1639773 87108 91032 74496 16536 5803950 64263 7987 5739687 38463 56276 5701224
is_linear=0
shrinkage=0.1


Tree=26
num_leaves=15
num_cat=0
split_feature=0 185 54 1 222 224 190 0 185 2 0 185 203 146
split_gain=13182.7 1978.73 1910.47 1659.24 730.201 380.976 224.505 41.1016 52.7458 51.7886 4.10281 14.1234 0.0593978 0.00655863
threshold=0.017175099206349211 -0.48207733116431389 1.0000000180025095e-35 0.16141165821338235 -1.0000000180025095e-35 3.9004129492449029 -2.1684442123505789 0.017423115079365083 0.42501764593484398 -0.82095955204387006 0.017795138888888892 2.4710966223397972 1.0000000180025095e-35 0.31622653371338932
decision_type=2 2 2 2 2 2 2 2 2 2 2 2 2 2
left_child=1 5 3 -3 -4 6 -1 8 13 -10 11 -9 -12 -2
right_child=7 2 4 -5 -6 -7 -8 10 9 -11 12 -13 -14 -15
leaf_value=0.013413355040613958 -0.1003774809045257 0.014279872169709213 -0.001669320876417035 -0.022427203953669081 0.054491086661737631 0.41855096592593433 -0.067217468100937622 -0.089200374534843974 0.14809085912976325 -0.042316299924894003 -0.10026807726670822 0.085985803639566025 -0.10211515445351763 -0.10255231881952161
leaf_weight=380.78970294666942 61.461817082366906 57430.486664538505 2810.021646216861 15675.445103846025 13146.556165287504 16.724195483373478 3707.4619344868697 144.9568560650805 21.391258182004094 42.996834355406463 11971.249641977716 4.7528231395408502 176.6700396615779 17.905998515081592
leaf_count=18888 20239 878760 99167 432828 115359 797 308674 38279 318 2863 5649224 362 55277 2308
internal_value=0 0.0101229 0.0132516 0.00640911 0.044601 -0.0577588 -0.0597073 -0.0994707 -0.0463098 0.0209415 -0.100092 -0.0836388 -0.100295 -0.100868
internal_weight=0 93167.5 89062.5 73105.9 15956.6 4104.98 4088.25 12441.4 143.756 64.3881 12297.6 149.71 12147.9 79.3678
internal_count=7623343 1854473 1526114 1311588 214526 328359 327562 5768870 25728 3181 5743142 38641 5704501 22547
is_linear=0
shrinkage=0.1


Tree=27
num_leaves=16
num_cat=0
split_feature=0 193 65 206 185 65 194 61 0 185 2 203 0 203 170
split_gain=11933.6 1908.64 1779.65 1189.59 946.009 767.026 723.263 211.789 32.0268 56.3429 56.0887 0.0449963 0.0922789 0.0397846 0.00709071
threshold=0.017175099206349211 -0.61125941083263147 0.32985623956269733 -0.42856058293203841 -0.22604466835660958 2.3815647368413191 1.0000000180025095e-35 -1.6649196711484116 0.017795138888888892 0.42501764593484398 -0.71932539874996715 1.0000000180025095e-35 0.025607638888888892 1.0000000180025095e-35 1.0000000180025095e-35
decision_type=2 2 2 2 2 2 2 2 2 2 2 2 2 2 2
left_child=1 5 3 -3 -4 6 -1 -7 9 13 -11 14 -13 -2 -10
right_child=8 2 4 -5 -6 7 -8 -9 11 10 -12 12 -14 -15 -16
leaf_value=-0.02678305313310584 -0.10043048482553746 -0.022235081054681256 -0.024151019567544008 0.014208674819666015 0.047437165001328191 0.22247891717890333 0.13344551196057658 0.066911731328040278 -0.10021686991381362 0.087409159556973884 -0.064593788479790845 -0.10598980489078924 -0.10051301974703755 -0.10824897592446268 -0.10049668626262345
leaf_weight=16539.227495681494 166.0332552184118 11281.154210237903 2039.2912153821671 43470.919304873911 19466.886329483008 115.68047664850019 286.60093190264888 359.38820122496691 9842.8687612259528 38.908277384005487 64.549489879980683 41.498858022270724 118.93631680204999 6.773852983606047 997.38162165437825
leaf_count=395416 56016 324570 103653 779974 238579 889 6028 5756 5320605 1235 6781 4460 50881 346 332742
internal_value=0 0.00947089 0.016274 0.00669978 0.0406489 -0.0205158 -0.0240538 0.104793 -0.0994227 -0.0657942 -0.0074287 -0.100267 -0.10193 -0.100737 -0.100243
internal_weight=0 93559.1 76258.3 54752.1 21506.2 17300.9 16825.8 475.069 11277 276.265 103.458 11000.7 160.435 172.807 10840.3
internal_count=7627931 1854865 1446776 1104544 342232 408089 401444 6645 5773066 64378 8016 5708688 55341 56362 5653347
is_linear=0
shrinkage=0.1


Tree=28
num_leaves=16
num_cat=0
split_feature=0 178 0 1 97 193 186 162 0 3 198 147 203 0 170
split_gain=10647.4 2026.96 1775.31 1473.72 861.502 705.476 588.445 449.103 29.2545 25.7938 19.3927 13.2457 0.0347067 0.0697711 0.00514136
threshold=0.017175099206349211 1.0000000180025095e-35 0.0022941468253968255 -0.33679558595490372 -0.40904884668057845 0.3522695739009517 0.50502327505842237 -0.42612782697423007 0.017795138888888892 -1.3157715650488477 -0.064733799927480809 0.58275418158566772 1.0000000180025095e-35 0.025979662698412703 1.0000000180025095e-35
decision_type=2 2 2 2 2 2 2 2 2 2 2 2 2 2 2
left_child=1 2 4 -4 -1 7 -7 -3 9 10 -2 -11 14 -14 -10
right_child=8 5 3 -5 -6 6 -8 -9 12 11 -12 -13 13 -15 -16
leaf_value=0.096231912369704325 -0.060184256985385202 0.091090548653069661 0.0066571440579175903 -0.029024482430942074 0.018116074439065953 0.058175713910943283 0.015033472252606562 0.0098163464573033047 -0.10019635424555975 -0.080182844326611949 0.12711634290484095 0.053107442437417357 -0.10542721973517835 -0.10046273872113681 -0.10044716865609014
leaf_weight=1540.6529679014347 10.650928993825802 716.72651948884595 22088.05901655159 24319.697787548415 16882.787647263147 10523.849757078802 4519.2004211468156 13229.933168714517 8893.2635596143082 228.85519718099385 11.492609564214943 7.7066075956681734 38.478753880946897 107.11461267550476 899.99261167366058
leaf_count=15942 1378 15952 430732 820815 211749 130485 54892 173033 5310787 60025 1423 1607 4664 50647 332453
internal_value=0 0.00821368 -0.00161517 -0.0120416 0.0246485 0.0301945 0.045215 0.0139931 -0.0993781 -0.0661799 0.0370257 -0.0758406 -0.100242 -0.101775 -0.100219
internal_weight=0 93820.9 64831.2 46407.8 18423.4 28989.7 15043.1 13946.7 10197.6 258.705 22.1435 236.562 9938.85 145.593 9793.26
internal_count=7616584 1853600 1479238 1251547 227691 374362 185377 188985 5762984 64433 2801 61632 5698551 55311 5643240
is_linear=0
shrinkage=0.1


Tree=29
num_leaves=16
num_cat=0
split_feature=0 0 185 54 206 2 175 188 0 185 3 170 0 170 185
split_gain=9596.21 1738.7 2267.41 1567.44 1260.29 761.097 420.044 405.127 28.3618 45.6761 42.2951 0.0141649 0.0169006 0.00773839 0.00150224
threshold=0.017175099206349211 0.0097346230158730177 0.42501764593484398 0.29417104435759972 1.1941220051556429 -0.78284674455865644 1.0000000180025095e-35 1.0000000180025095e-35 0.017795138888888892 0.42501764593484398 -1.1197534555462665 1.0000000180025095e-35 0.026351686507936511 1.0000000180025095e-35 0.26133133757891264
decision_type=2 2 2 2 2 2 2 2 2 2 2 2 2 2 2
left_child=1 3 5 4 -1 -3 -4 -5 9 13 -11 14 -13 -2 -10
right_child=8 2 6 7 -6 -7 -8 -9 11 10 -12 12 -14 -15 -16
leaf_value=0.0044455744934870376 -0.10027358171737627 -0.014881129668294047 0.009817011264593542 0.083779192216063184 0.042853163322561533 -0.064999193398581054 0.064065608855765038 0.033200041057650585 -0.10015903367120188 0.11581392534675294 -0.046443982778586149 -0.10128138172491788 -0.10031753837538644 -0.10210300025920378 -0.10027562022231028
leaf_weight=55678.850099824369 117.60151167027652 5061.3906285502017 7744.6914612953551 3672.8572985136416 10092.107707613381 7549.9075287207961 1749.7832458098419 2783.9524994655512 6808.1704963746015 20.433277832577005 75.144322858890519 257.7970655632671 618.12720410944894 28.780569156049751 1319.3904495039023
leaf_count=888478 52530 140483 87109 31130 110838 535498 20634 41527 4761349 547 7380 51594 296575 4035 594097
internal_value=0 0.00744394 -0.0170963 0.0149546 0.010339 -0.0448849 0.0198148 0.0619712 -0.0993112 -0.0655252 -0.0117553 -0.100219 -0.100601 -0.100633 -0.100178
internal_weight=0 94333.5 22105.8 72227.8 65771 12611.3 9494.47 6456.81 9245.44 241.96 95.5776 9003.49 875.924 146.382 8127.56
internal_count=7623804 1855697 783724 1071973 999316 675981 107743 72657 5768107 64492 7927 5703615 348169 56565 5355446
is_linear=0
shrinkage=0.1


Tree=30
num_leaves=16
num_cat=0
split_feature=0 50 185 0 40 229 175 188 0 185 1 203 0 203 170
split_gain=8601.56 1572.72 1720.69 2055.7 1003.05 810.056 689.565 278.317 7.72054 19.2643 13.6777 0.0200173 0.0386287 0.0110254 0.0028276
threshold=0.017423115079365083 -0.58890920067115604 0.42501764593484398 0.010850694444444446 -1.0076059616176474 1.0000000180025095e-35 1.0000000180025095e-35 0.61841773884480289 0.017795138888888892 0.42501764593484398 -0.46134739699697519 1.0000000180025095e-35 0.027095734126984131 1.0000000180025095e-35 1.0000000180025095e-35
decision_type=2 2 2 2 2 2 2 2 2 2 2 2 2 2 2
left_child=1 5 3 -3 -4 6 -1 -7 9 13 -11 14 -13 -2 -10
right_child=8 2 4 -5 -6 7 -8 -9 11 10 -12 12 -14 -15 -16
leaf_value=0.035324677780018986 -0.10032054651657363 -0.0020550004259548677 0.1322310078285214 -0.057907776984860992 0.017344085033876841 -0.034236844038375812 0.11339159054607838 0.025318155128321626 -0.10016073046367802 0.083205076052729476 -0.054675159238280452 -0.10429150342985888 -0.10033656042802744 -0.10625744585440805 -0.10036618778541662
leaf_weight=14893.833748550736 74.290783604490571 41020.066166264703 783.53021834604442 7851.0127161005512 25245.663834017934 2153.4905229166616 1224.4877293221653 1234.5524513436249 7284.3162308375468 10.788714480586348 21.59711449034512 34.739171883789822 85.424966972786933 3.2655708908569059 737.68116358260158
leaf_count=165015 33631 894765 8514 537911 204701 33908 21052 12980 5311225 1235 3613 5283 49751 229 332613
internal_value=0 0.00662065 3.38982e-05 -0.0110276 0.0208024 0.0319124 0.0412553 -0.0125359 -0.0998434 -0.0735208 -0.00874302 -0.100199 -0.10148 -0.100571 -0.10018
internal_weight=0 94406.6 74900.3 48871.1 26029.2 19506.4 16118.3 3388.04 8252.1 109.942 32.3858 8142.16 120.164 77.5564 8022
internal_count=7616426 1878846 1645891 1432676 213215 232955 186067 46888 5737580 38708 4848 5698872 55034 33860 5643838
is_linear=0
shrinkage=0.1


Tree=31
num_leaves=16
num_cat=0
split_feature=0 212 185 228 40 125 162 95 0 185 3 203 203 0 124
split_gain=7720.7 1562.27 1500.43 1846.35 908.986 417.879 313.431 303.179 28.0841 37.7068 16.6393 0.0165137 0.0146136 0.0280959 0.00164088
threshold=0.017175099206349211 1.0000000180025095e-35 0.17948820779210903 1.0000000180025095e-35 -0.036730818573052743 -0.31632989788952609 -0.59554964599812499 -1.3330754346802243 0.017795138888888892 0.42501764593484398 -0.40102038737013501 1.0000000180025095e-35 1.0000000180025095e-35 0.027839781746031748 -1.7199366699749934
decision_type=2 2 2 2 2 2 2 2 2 2 2 2 2 2 2
left_child=1 2 3 -1 -4 6 -3 -7 9 11 -11 -2 14 -14 -10
right_child=8 5 4 -5 -6 7 -8 -9 12 10 -12 -13 13 -15 -16
leaf_value=-0.013307424875776203 -0.10030883669608504 0.21362479329111231 0.058927702433828749 0.19955683749021422 0.010298362425504973 0.24703765140949857 0.030597026375378492 0.079211779945049771 -0.10035380681236594 0.013604864397860723 -0.074062831631170931 -0.10636975198986048 -0.10381329180452117 -0.10029086576148283 -0.10015081296818372
leaf_weight=42417.018400474335 117.65434515941888 95.650293471058831 4243.4175468896283 411.43515221506823 40815.7048984922 113.40043056150898 4289.0424364660867 2119.6901005613618 422.80812626029365 62.563284419709817 33.10633889073506 4.6739874307531855 32.11598020826932 76.781408748764079 6844.5531719178543
leaf_count=1367635 56029 3501 50651 7754 335589 2009 49098 37990 197840 3184 4791 329 5624 49701 5451747
internal_value=0 0.00566758 0.00213947 -0.0112625 0.014878 0.0525227 0.0345897 0.0877343 -0.0991344 -0.0637608 -0.0167324 -0.10054 -0.10018 -0.10133 -0.100163
internal_weight=0 94505.4 87887.6 42828.5 45059.1 6617.78 4384.69 2233.09 7594.26 217.998 95.6696 122.328 7376.26 108.897 7267.36
internal_count=7623472 1854227 1761629 1375389 386240 92598 52599 39999 5769245 64333 7975 56358 5704912 55325 5649587
is_linear=0
shrinkage=0.1


Tree=32
num_leaves=15
num_cat=0
split_feature=0 178 97 1 105 170 224 193 0 144 43 203 0 170
split_gain=6942.67 1536.41 1354.07 1344.24 472.701 521.097 428.562 217.879 8.4392 6.98932 4.56491 0.0113479 0.0218741 0.00157165
threshold=0.017423115079365083 0.54364701798036952 0.24026671012887485 1.0000000180025095e-35 1.0000000180025095e-35 1.0000000180025095e-35 2.8462601802410599 0.3522695739009517 0.017795138888888892 -0.86485012118189464 1.8833002827738479 1.0000000180025095e-35 0.025979662698412703 1.0000000180025095e-35
decision_type=2 2 2 2 2 2 2 2 2 2 2 2 2 2
left_child=1 2 3 -1 5 -3 -4 -6 9 -2 -11 13 -13 -10
right_child=8 4 6 -5 7 -7 -8 -9 11 10 -12 12 -14 -15
leaf_value=0.012300181876941678 0.091908326087982717 0.071645312478671216 -0.050443286337763994 -0.016523791303902229 -0.023153025552621345 0.024695897185691717 0.23431533026952467 0.029610772192846198 -0.10013161797485973 -0.078349713994003534 0.058262329960517223 -0.10366090329270634 -0.10031727937593012 -0.1003008418149501
leaf_weight=53468.094445586088 2.5924550663330583 4855.4409756516689 5469.0987787190243 23200.156105120492 1522.3662758207065 4607.3078208588995 53.367568168090656 1610.5471496874234 5967.2137757949531 89.025000103283674 2.5150884921895331 26.87824373471085 71.916462857450824 604.41154929343611
leaf_count=875397 768 70067 218684 619982 32921 33821 1045 29386 5312433 37001 744 4623 50583 332501
internal_value=0 0.0051171 0.000133084 0.00357792 0.0376394 0.0487862 -0.0476915 0.00397143 -0.0997436 -0.0700106 -0.0745963 -0.100163 -0.101227 -0.100147
internal_weight=0 94786.4 82190.7 76668.3 12595.7 9462.75 5522.47 3132.91 6764.55 94.1325 91.5401 6670.42 98.7947 6571.63
internal_count=7619956 1881303 1715108 1495379 166195 103888 219729 62307 5738653 38513 37745 5700140 55206 5644934
is_linear=0
shrinkage=0.1


Tree=33
num_leaves=15
num_cat=0
split_feature=185 96 193 229 95 185 141 87 186 224 50 222 78 97
split_gain=2641.86 1547.63 1160.05 1024.52 729.564 674.384 644.626 735.934 682.894 483.15 428.776 398.96 346.305 227.536
threshold=-0.29793020377493845 1.0000000180025095e-35 -0.61125941083263147 1.0000000180025095e-35 -1.078723786751034 0.31979075781147881 3.6716519666362006 1.8103962343813687 -0.99528012870806526 -1.4714338442870971 -0.22924641244255031 -1.0000000180025095e-35 3.4027829523987321 -2.1861230021590816
decision_type=2 2 2 2 2 2 2 2 2 2 2 2 2 2
left_child=6 2 4 -4 -2 12 10 8 -8 -7 11 -1 -3 -12
right_child=1 5 3 -5 -6 9 7 -9 -10 -11 13 -13 -14 -15
leaf_value=-0.095443006468378833 0.1043172943738941 -0.064695964019368959 0.017786686086168162 -0.021959150227375279 -0.021233707886463282 0.28822369021191424 0.667958286183573 1.2149943807475285 -0.082988205150558186 -0.0062444406445770189 0.65556970255632785 -0.012354774461935954 0.25069495262774527 -0.06798327352331747
leaf_weight=692.47301975009032 478.13801569998031 4694.3335004522814 60928.16597753705 7257.9659310280695 14457.696553925169 56.88998207252007 17.422950408479664 7.2584208562620907 39.710053832095582 2707.5865174611681 4.349224087491165 3492.6972794265021 35.074607379443478 6232.5510339025059
leaf_count=436474 32770 792075 2366686 342365 693682 2862 1576 579 12921 130123 1056 451651 2289 2356083
internal_value=0 0.004103 0.00802699 0.013556 -0.0172145 -0.0394217 -0.0489145 0.266515 0.146016 -0.0001846 -0.0508633 -0.0261024 -0.0623569 -0.0674787
internal_weight=0 90615.9 83122 68186.1 14935.8 7493.88 10486.5 64.3914 57.133 2764.48 10422.1 4185.17 4729.41 6236.9
internal_count=7623192 4362852 3435503 2709051 726452 927349 3260340 15076 14497 132985 3245264 888125 794364 2357139
is_linear=0
shrinkage=0.1


Tree=34
num_leaves=16
num_cat=0
split_feature=97 206 202 51 65 94 1 78 190 118 95 47 193 192 186
split_gain=1595.19 1376.9 1150.05 928.744 820.156 685.405 626.088 383.93 380.334 432.526 354.204 301.31 248.369 185.919 177.6
threshold=0.13774320115896119 -0.28293529594367661 0.27294844966266191 1.0000000180025095e-35 -0.39101431353519656 1.0000000180025095e-35 -1.0000000180025095e-35 0.75775350243256578 -2.3395000293162109 1.0000000180025095e-35 0.38379818884181066 3.6919210331951642 0.99462223039000719 0.19027777777777782 -0.35229299216530413
decision_type=2 2 2 2 2 2 2 2 2 2 2 2 2 2 2
left_child=1 4 3 -3 7 -6 -4 -1 12 11 -11 -10 13 -2 -14
right_child=8 2 6 -5 5 -7 -8 -9 9 10 -12 -13 14 -15 -16
leaf_value=-0.055530870840506313 -0.12668029491290275 0.0085716923317950364 0.053830234955496582 -0.075154302122117878 -0.011450562902191702 0.066830878183579093 0.19788511745193324 0.010804548120120149 -0.055634625937156394 0.35532341723707811 1.3477416885976505e-05 0.68975837888431735 0.046717072019390467 0.047863107332552217 0.32967379328717095
leaf_weight=6182.9539249719819 80.072786464646924 62704.231891528121 2654.4463598282891 1353.473375734 17654.550759858335 1194.1376803288586 340.39146074507153 1015.8385016834363 6852.8521748739877 45.858696681738365 72.276026939915027 5.4273395169293499 42.535654179868288 256.56074256071588 46.356948015105445
leaf_count=946880 3253 2393134 129343 941351 1478267 21662 14524 92930 1560696 9676 15179 1587 965 11179 2110
internal_value=0 0.00205469 0.00963438 0.00680265 -0.0174573 -0.00649113 0.0702034 -0.0461701 -0.0461785 -0.0517768 0.137941 -0.0550448 0.0456046 0.00634563 0.194277
internal_weight=0 93100 67052.5 64057.7 26047.5 18848.7 2994.84 7198.79 7401.94 6976.41 118.135 6858.28 425.526 336.634 88.8926
internal_count=7622736 6018091 3478352 3334485 2539739 1499929 143867 1039810 1604645 1587138 24855 1562283 17507 14432 3075
is_linear=0
shrinkage=0.1


Tree=35
num_leaves=16
num_cat=0
split_feature=97 193 229 58 50 56 100 95 146 209 5 43 118 183 177
split_gain=1462.41 1180.95 1002.01 840.255 604.469 593.662 478.874 445.417 333.108 350.698 631.721 295.729 220.473 299.141 193.207
threshold=0.13774320115896119 -0.61125941083263147 1.0000000180025095e-35 -1.0000000180025095e-35 -0.57865453351216478 -1.2617899761950384 1.5458187105486216 -1.078723786751034 0.011678183157171517 3.072003997812208 0.036756162576233799 -2.9175943768998898 1.0000000180025095e-35 -0.97941342263605313 -2.2865332286294153
decision_type=2 2 2 2 2 2 2 2 2 2 2 2 2 2 2
left_child=1 4 3 -3 6 -4 -1 -6 9 11 -11 -2 14 -14 -10
right_child=8 2 5 -5 7 -7 -8 -9 12 10 -12 -13 13 -15 -16
leaf_value=0.011876524143972831 0.25237115112243846 0.036109799670396396 0.62363408528938125 0.0062623899085850589 0.066756397954549976 -0.026785434622868271 0.22848105526672141 -0.033971298341819292 0.30272626746231945 -0.10025240036632249 1.5909113704456548 -0.0608221189241148 -0.12886503327948445 0.26076926265475708 -0.02002897159226814
leaf_weight=2730.0696880362229 30.323906596633606 11306.441484447394 14.056984375056343 56888.265622372623 453.8198893610388 8240.7668628503452 106.03130219673039 13447.153863994463 18.745006456039846 5.6966285106609558 3.6075751664466225 5218.78117230715 28.395386961929034 64.377562404319178 1756.9844493642449
leaf_count=138356 4903 587531 4536 3395746 50247 609279 6402 1225986 477 6660 179 1390110 694 10082 192336
internal_value=0 0.00196049 0.00722782 0.011211 -0.022099 -0.0256778 0.0199746 -0.0306829 -0.0450383 -0.0579255 0.555473 -0.0590128 -0.00877038 0.141512 -0.0166219
internal_weight=0 93186.6 76449.5 68194.7 16737.1 8254.82 2836.1 13901 7126.91 5258.41 9.3042 5249.11 1868.5 92.7729 1775.73
internal_count=7623524 6018083 4597092 3983277 1420991 613815 144758 1276233 1605441 1401852 6839 1395013 203589 10776 192813
is_linear=0
shrinkage=0.1


Tree=36
num_leaves=16
num_cat=0
split_feature=105 65 212 1 202 40 94 206 206 180 65 170 180 217 198
split_gain=1416.54 1057.71 941.038 915.049 675.355 1129.13 631.415 617.201 599.491 572.659 558.436 501.606 420.255 314.611 288.33
threshold=1.0000000180025095e-35 0.21895307754763674 1.0000000180025095e-35 -0.33679558595490372 0.34303233936092986 -0.86350764701461324 1.0000000180025095e-35 -0.24363943312054939 0.96759375645784251 -2.1744789860598881 1.8270489267660157 1.0000000180025095e-35 -2.1744789860598881 -1.0690539214104204 -1.0000000180025095e-35
decision_type=2 2 2 2 2 2 2 2 2 2 2 2 2 2 2
left_child=1 2 7 8 9 -6 10 -1 12 -5 -3 -8 -2 -4 -10
right_child=3 6 13 4 5 -7 11 -9 14 -11 -12 -13 -14 -15 -16
leaf_value=-0.030464235764865 0.11560664059252512 0.011058813547716222 0.24488174593270423 0.083016776703404405 1.2008201019091003 0.095085189989371488 0.13394940517219417 -0.0011877711837517586 -0.0046071616374689563 -0.044239708912474647 0.055908462916657214 0.036073398340740519 -0.016834960074664194 0.044388075554185669 0.054678427826234402
leaf_weight=10102.422365916369 244.88141263567377 27890.624126129667 80.531499655917287 363.20630640909076 9.7834187012631428 164.77926896460121 795.57554914016509 25072.305144544167 1288.3844248985988 13397.498295512458 3083.124332104635 1531.7315451198956 11082.6444349878 2781.8434674586751 2258.1105533063528
leaf_count=1043214 9205 1256153 10456 12853 2235 19551 9808 1202940 92157 2415445 146562 18765 1168688 132448 81301
internal_value=0 0.00628402 -0.00510926 -0.0199889 -0.0384013 0.157056 0.0192976 -0.00959617 -0.00273845 -0.0408808 0.0155231 0.0695317 -0.0139718 0.0500289 0.0331409
internal_weight=0 71338.2 38037.1 28809.3 13935.3 174.563 33301.1 35174.7 14874 13760.7 30973.7 2327.31 11327.5 2862.37 3546.49
internal_count=7621781 3820346 2389058 3801435 2450084 21786 1431288 2246154 1351351 2428298 1402715 28573 1177893 142904 173458
is_linear=0
shrinkage=0.1


Tree=37
num_leaves=16
num_cat=0
split_feature=0 0 185 50 125 187 2 97 0 185 2 170 0 170 185
split_gain=5812.32 1392.38 1577.59 1518.35 727.452 714.531 552.235 285.835 12.9382 25.4512 21.0703 0.00473142 0.00550141 0.0013144 0.000522076
threshold=0.017423115079365083 0.001922123015873016 0.17948820779210903 -0.06584490153572066 0.49083587014698954 -0.55226241767428863 0.44946736412991478 -0.10147831977083742 0.017795138888888892 0.42501764593484398 -0.36360586222130747 1.0000000180025095e-35 0.025979662698412703 1.0000000180025095e-35 0.26133133757891264
decision_type=2 2 2 2 2 2 2 2 2 2 2 2 2 2 2
left_child=1 4 3 -3 6 -4 -1 -6 9 13 -11 14 -13 -2 -10
right_child=8 2 5 -5 7 -7 -8 -9 11 10 -12 12 -14 -15 -16
leaf_value=0.028900871568155476 -0.10018012931477711 0.0035619478420219675 0.046977970402788533 -0.040406692827440797 0.15721145538274375 0.0059812334363053728 -0.016631596341523874 0.064802170836365802 -0.10010114005766245 0.09213544749919074 -0.07821806527265783 -0.10090399975108272 -0.10021921287331977 -0.1013839296323233 -0.10018647051850181
leaf_weight=16456.399581669597 44.550962562963832 15324.72352683614 4812.2088323197677 16110.472723521525 458.49057764513418 36473.90059885924 3178.0882829707116 1239.9417848256417 4177.8673681742512 15.962045247550124 13.31868963956367 166.37417081743479 397.87945897132158 11.388941719487773 865.5579720941023
leaf_count=150473 31257 342682 45331 934797 4524 327020 58605 17182 4762074 1845 2944 49869 298390 2386 594138
internal_value=0 0.00449762 -0.00209235 -0.0189719 0.026962 0.0107597 0.0215309 0.089748 -0.0995588 -0.0608875 0.0146481 -0.100147 -0.100421 -0.100425 -0.100116
internal_weight=0 94054.2 72721.3 31435.2 21332.9 41286.1 19634.5 1698.43 5692.9 85.2206 29.2807 5607.68 564.254 55.9399 5043.43
internal_count=7623517 1880614 1649830 1277479 230784 372351 209078 21706 5742903 38432 4789 5704471 348259 33643 5356212
is_linear=0
shrinkage=0.1


Tree=38
num_leaves=16
num_cat=0
split_feature=0 0 185 125 212 206 96 175 0 185 2 203 203 0 185
split_gain=5265.27 1254.32 1422.48 1063.31 841.866 836.64 790.684 490.367 32.8827 34.2179 22.1222 0.00984943 0.00651275 0.0125976 0.000704771
threshold=0.017175099206349211 0.0078745039682539698 0.26133133757891264 0.31146574223739204 0.13187957781155643 1.1941220051556429 -0.12763769034715208 1.0000000180025095e-35 0.017795138888888892 0.42501764593484398 -0.56687416880911301 1.0000000180025095e-35 1.0000000180025095e-35 0.026351686507936511 1.0000000180025095e-35
decision_type=2 2 2 2 2 2 2 2 2 2 2 2 2 2 2
left_child=1 3 5 4 -1 -3 -5 -4 9 11 -11 -2 14 -14 -10
right_child=8 2 7 6 -6 -7 -8 -9 12 10 -12 -13 13 -15 -16
leaf_value=0.0041369051608625418 -0.10026001000274075 -0.046902304800905764 -0.00089481028957194239 0.10946913409577469 0.053860774815949232 0.01926149938038706 0.030641559640244755 0.043202948180402594 -0.10009368402692667 0.023554694281289233 -0.073594741740231728 -0.10521273455406699 -0.10303919128299976 -0.1002437621918872 -0.10017579605578229
leaf_weight=51421.246549259871 91.444081385212485 11629.638228861906 14215.460143697797 1607.9342715155799 3646.4226441141218 2286.9989166449523 6099.0844611620996 3065.44356689509 3505.1342328561586 57.310660456772894 39.660000138450414 4.1997572253458193 22.413388180721086 57.422605628904421 1489.4672649162239
leaf_count=720186 56093 711683 151806 20648 31754 82352 101043 35680 4465620 2101 5975 328 4806 50576 1183195
internal_value=0 0.00415377 -0.0122346 0.0122984 0.00742948 -0.0360292 0.0470876 0.00692765 -0.0985931 -0.0580376 -0.0161784 -0.100477 -0.100132 -0.101029 -0.100118
internal_weight=0 93972.2 31197.5 62774.7 55067.7 13916.6 7707.02 17280.9 5267.05 192.614 96.9707 95.6438 5074.44 79.836 4994.6
internal_count=7623846 1855152 981521 873631 751940 794035 121691 187486 5768694 64497 8076 56421 5704197 55382 5648815
is_linear=0
shrinkage=0.1


Tree=39
num_leaves=15
num_cat=0
split_feature=0 8 0 179 44 185 65 0 185 178 170 0 170 185
split_gain=4721.1 1079.31 1128.29 1196.43 582.924 574.107 560.48 10.5729 16.7698 9.58973 0.00260769 0.00300419 0.000633457 0.000285696
threshold=0.017423115079365083 -0.012220519254975736 0.001922123015873016 -0.10669027784035344 -0.9033985434033226 -0.22604466835660958 -0.89007854260296926 0.017795138888888892 0.42501764593484398 0.37050677256750902 1.0000000180025095e-35 0.025979662698412703 1.0000000180025095e-35 0.26133133757891264
decision_type=2 2 2 2 2 2 2 2 2 2 2 2 2 2
left_child=1 4 6 -4 -1 -6 -3 8 12 -10 13 -12 -2 -9
right_child=7 2 3 -5 5 -7 -8 10 9 -11 11 -13 -14 -15
leaf_value=0.41921025050473892 -0.10014754613909954 -0.018254215052781391 0.036399264578665699 -0.010194623301812061 -0.043472984260493168 0.049755466089679033 0.027359103007290303 -0.10008279959098987 -0.034876478683567823 0.10019821470853632 -0.10074036444179468 -0.10018060965727978 -0.10109337115323275 -0.10015256380192966
leaf_weight=40.687554370844737 36.73061782651348 3164.6505193249322 6069.1402924006688 59922.082123365893 741.55911859835032 6045.4870612531668 18108.691521584522 3420.6979636391625 22.635363451438028 6.8456228483701116 135.88098288344918 325.70927474147175 8.7721190585289133 708.59792864485644
leaf_count=1507 31425 48951 72706 1392505 85825 103141 175952 4761163 4106 707 49937 298135 2321 593907
internal_value=0 0.00354241 0.000546597 -0.00590943 0.0418316 0.0395692 0.0205736 -0.0995116 -0.0622643 -0.0035115 -0.10012 -0.100345 -0.10033 -0.100095
internal_weight=0 94092.3 87264.6 65991.2 6827.73 6787.05 21273.3 4665.87 74.9837 29.481 4590.89 461.59 45.5027 4129.3
internal_count=7622288 1880587 1690114 1465211 190473 188966 224903 5741701 38559 4813 5703142 348072 33746 5355070
is_linear=0
shrinkage=0.1


Tree=40
num_leaves=15
num_cat=0
split_feature=0 0 228 8 175 179 217 71 0 190 150 170 0 124
split_gain=4286.5 1044.99 915.878 863.536 588.332 588.031 356.838 351.145 9.60566 11.5123 3.70841 0.00193573 0.00226606 0.000172412
threshold=0.017423115079365083 0.010106646825396828 1.0000000180025095e-35 -1.0000000180025095e-35 1.0000000180025095e-35 0.96419999890150432 -0.51532435929508325 0.9339736476946966 0.017795138888888892 -2.2368681704148878 1.0000000180025095e-35 1.0000000180025095e-35 0.025979662698412703 -1.7199366699749934
decision_type=2 2 2 2 2 2 2 2 2 2 2 2 2 2
left_child=1 2 3 -1 6 -4 -3 -6 9 -2 -11 13 -13 -10
right_child=8 4 5 -5 7 -7 -8 -9 11 10 -12 12 -14 -15
leaf_value=0.050053001859982231 0.10483187648693777 -0.0046754920569462262 0.11798488253265954 0.0045432538122872129 0.014769561586622596 -0.057721259403006465 -0.035751819810880277 0.18097344766237142 -0.10021371984953326 -0.08650726638820927 -0.032726137582981311 -0.10067191613085498 -0.10016214596597853 -0.10008219794443036
leaf_weight=4438.1865082484437 3.8643561440403564 5669.7776748448377 1163.148535949178 68839.315357746906 3151.1344132804079 227.76755986991338 10608.497574547888 132.4604500370333 102.48152394531644 49.831968102807878 17.262641766486922 123.61757497233339 296.00950128442491 3635.128317632043
leaf_count=78443 768 134737 7578 1023672 107162 1687 524556 3130 81779 28821 9001 49799 299167 5273857
internal_value=0 0.00343538 0.0088255 0.00729964 -0.0171389 0.0892124 -0.0249278 0.0214742 -0.099486 -0.0630034 -0.07267 -0.100109 -0.100312 -0.100086
internal_weight=0 94230.3 74668.4 73277.5 19561.9 1390.92 16278.3 3283.59 4228.2 70.959 67.0946 4157.24 419.627 3737.61
internal_count=7624157 1880965 1111380 1102115 769585 9265 659293 110292 5743192 38590 37822 5704602 348966 5355636
is_linear=0
shrinkage=0.1


Tree=41
num_leaves=15
num_cat=0
split_feature=0 1 202 9 206 103 65 0 185 9 203 0 203 185
split_gain=3848.72 983.669 1222.34 1050.08 664.851 525.627 354.556 10.4774 15.6405 11.7578 0.0028096 0.00539689 0.00160325 0.000287892
threshold=0.017423115079365083 -0.77272692460215398 1.0000000180025095e-35 0.12080591514784549 0.96759375645784251 2.006500759191284 -1.1118848666330903 0.017795138888888892 0.42501764593484398 0.37415545094759611 1.0000000180025095e-35 0.025979662698412703 1.0000000180025095e-35 1.0000000180025095e-35
decision_type=2 2 2 2 2 2 2 2 2 2 2 2 2 2
left_child=1 5 3 -3 -4 6 -1 8 12 -10 13 -12 -2 -9
right_child=7 2 4 -5 -6 -7 -8 10 9 -11 11 -13 -14 -15
leaf_value=-0.015260366639683484 -0.10017072705915253 -0.010349652622686493 0.033659610772968633 0.018991332830199256 0.14492717016956788 0.22195393833149255 0.028571239959836531 -0.10006939603602448 -0.03542807032923187 0.12657021607739807 -0.10230542778416048 -0.1001843356506411 -0.10323610726763342 -0.10013034006933129
leaf_weight=2109.0492765617673 37.389543719938956 59129.459041952563 1949.4221427796874 15367.628551827511 741.19744692213135 133.97248551307712 14767.336337074521 2596.9218554524414 21.316546578542333 5.6725368743063873 16.694274524925277 42.620856304332847 1.7877940235193808 1104.9039124163392
leaf_count=48052 33659 1404016 31223 181169 7155 1491 207579 4465552 4114 676 4626 50523 220 1183403
internal_value=0 0.00289168 -0.0019055 -0.00429705 0.064311 0.0246598 0.0230936 -0.0994046 -0.0599569 -0.00137944 -0.100099 -0.100781 -0.100311 -0.100088
internal_weight=0 94198.1 77187.7 74497.1 2690.62 17010.4 16876.4 3827.31 66.1664 26.9891 3761.14 59.3151 39.1773 3701.83
internal_count=7623458 1880685 1623563 1585185 38378 257122 255631 5742773 38669 4790 5704104 55149 33879 5648955
is_linear=0
shrinkage=0.1


Tree=42
num_leaves=16
num_cat=0
split_feature=0 185 65 203 189 120 5 188 0 185 198 203 0 203 170
split_gain=3472.68 981.935 842.296 883.589 339.249 375.847 300.651 260.284 12.5414 16.7372 8.19094 0.00208435 0.00387908 0.00133739 0.000270859
threshold=0.017423115079365083 -0.48207733116431389 1.1061783736681217 0.1161864175715404 1.5375934093903121 -1.0706593879854556 0.47487492267502668 0.10488829755994557 0.017795138888888892 0.42501764593484398 -0.10878797479735751 1.0000000180025095e-35 0.025607638888888892 1.0000000180025095e-35 1.0000000180025095e-35
decision_type=2 2 2 2 2 2 2 2 2 2 2 2 2 2 2
left_child=1 4 3 -3 6 -6 -1 -4 9 13 -11 14 -13 -2 -10
right_child=8 2 7 -5 5 -7 -8 -9 11 10 -12 12 -14 -15 -16
leaf_value=-0.062491107850105393 -0.10015568433961466 -1.5552417505863829e-06 0.046593091920686211 0.10283036228287459 0.47599073092707234 0.016747271420062836 0.45302027599103739 0.01571070440861061 -0.10007004064366598 -0.087266716450942139 0.036466071009955567 -0.10207238911984184 -0.10017835558250382 -0.10302178512495289 -0.10016700661900986
leaf_weight=3073.3678432747256 33.917098863981664 79086.51525698934 5298.5773889683187 844.51499958138447 18.738441894063726 363.87043428292964 11.355025645403655 5627.9129868406453 3030.6474055956351 7.2836462126579162 20.15412543551065 14.999933180253718 38.740535682765767 1.7101667649694707 318.33352755260421
leaf_count=303387 33692 1398853 71878 6121 1242 28551 1501 69911 5314683 1289 3538 4470 50617 212 333021
internal_value=0 0.00265162 0.00464479 0.00108492 -0.0495773 0.0392389 -0.0605935 0.0306865 -0.0992702 -0.0550837 0.0036199 -0.100089 -0.100707 -0.100293 -0.100079
internal_weight=0 94324.9 90857.5 79931 3467.33 382.609 3084.72 10926.5 3465.79 63.065 27.4378 3402.72 53.7405 35.6273 3348.98
internal_count=7622966 1881444 1546763 1404974 334681 29793 304888 141789 5741522 38731 4827 5702791 55087 33904 5647704
is_linear=0
shrinkage=0.1


Tree=43
num_leaves=16
num_cat=0
split_feature=0 0 185 212 94 76 144 120 0 185 142 203 0 203 170
split_gain=3142.68 931.979 1260.08 767.564 753.83 531.39 301.461 282.189 10.4648 12.5385 12.8461 0.00149894 0.00274848 0.0010007 0.000197365
threshold=0.017423115079365083 0.010478670634920638 0.42501764593484398 1.1694237521593573 1.0000000180025095e-35 1.0000000180025095e-35 -1.1271574157500264 0.28590289116273743 0.017795138888888892 0.42501764593484398 0.1085244380855426 1.0000000180025095e-35 0.027839781746031748 1.0000000180025095e-35 1.0000000180025095e-35
decision_type=2 2 2 2 2 2 2 2 2 2 2 2 2 2 2
left_child=1 3 5 4 -1 -3 -4 -5 9 13 -11 14 -13 -2 -10
right_child=8 2 6 7 -6 -7 -8 -9 11 10 -12 12 -14 -15 -16
leaf_value=0.0032870363554736159 -0.10014117418809763 -0.053701584421724881 0.11797283539672415 0.1141196358015691 0.043365799218709464 0.013557002944281124 0.0064221033773856767 -0.0024129868371626584 -0.10006338289317361 -0.046109448961267362 0.11493859106046354 -0.10176929323869777 -0.10013385319759371 -0.10272172241065317 -0.10015039123816552
leaf_weight=70408.077914797934 30.659648152213776 7892.0546093024313 249.65333077637479 905.92285977280699 5028.0777195913251 1380.0922765118303 8183.6472426482942 269.65287883626297 2742.8374575408525 21.213767914916392 6.461509510758332 14.775817646004723 33.742579590878449 1.5801685210317362 288.08739069517469
leaf_count=1101671 33631 580200 2238 7731 39450 51299 96969 1864 5315011 3601 1128 5640 49495 213 332981
internal_value=0 0.00242921 -0.0182485 0.00720795 0.00595842 -0.0436906 0.00972437 0.0873895 -0.0992751 -0.0578834 -0.00850862 -0.10008 -0.100632 -0.100268 -0.100072
internal_weight=0 94317.2 17705.4 76611.7 75436.2 9272.15 8433.3 1175.58 3139.36 59.9151 27.6753 3079.44 48.5184 32.2398 3030.92
internal_count=7623122 1881422 730706 1150716 1141121 631499 99207 9595 5741700 38573 4729 5703127 55135 33844 5647992
is_linear=0
shrinkage=0.1


Tree=44
num_leaves=15
num_cat=0
split_feature=193 145 3 180 153 212 5 95 228 202 192 224 190 192
split_gain=945.989 793.898 661.089 605.339 556.064 429.718 483.219 437.534 1150.89 418.683 366.333 358.384 278.068 199.184
threshold=-0.61125941083263147 0.95315418056190027 -1.3484412499659448 -0.78370357272415248 -0.033546526924281908 0.47664397349039039 -0.285974342196746 -1.2694875226979268 -1.0000000180025095e-35 1.0000000180025095e-35 0.073611111111111127 -1.1104226228508529 -3.9302816077012976 0.095833333333333354
decision_type=2 2 2 2 2 2 2 2 2 2 2 2 2 2
left_child=5 2 12 -4 9 7 -7 8 -1 -3 -6 -9 -2 -8
right_child=1 4 3 -5 10 6 13 11 -10 -11 -12 -13 -14 -15
leaf_value=1.1368185313518919 -0.091728299776079977 -0.00063222577416387551 0.010770345628650932 -0.015610437429952898 0.080999715986590115 0.57039154771272094 0.21846406818446004 0.065349176038123943 0.055702129837759344 0.070881648361964852 0.024568669443292508 -0.030102123151885103 0.039828445833449314 0.025072658025810629
leaf_weight=10.165011837030759 167.71258954700897 16139.58348947324 12073.908177624457 31109.278898604331 1247.72088991091 17.876430054311641 58.745335700310534 403.46933165151859 314.4017701948178 862.40715294913389 14745.016197206947 15691.253782466287 3823.9542913126352 570.08359339204617
leaf_count=4239 1805 341511 677710 4087361 38924 932 6529 41438 31935 23012 468451 1647404 193662 59119
internal_value=0 0.00368699 -0.00463533 -0.00823444 0.015586 -0.022242 0.0577138 -0.0253912 0.0895613 0.00299524 0.0289713 -0.0277093 0.034301 0.0431393
internal_weight=0 80169.6 47174.9 43183.2 32994.7 17066 646.705 16419.3 324.567 17002 15992.7 16094.7 3991.67 628.829
internal_count=7624032 5832436 4960538 4765071 871898 1791596 66580 1725016 36174 364523 507375 1688842 195467 65648
is_linear=0
shrinkage=0.1


Tree=45
num_leaves=12
num_cat=0
split_feature=148 96 1 212 54 190 47 95 78 92 193
split_gain=916.35 783.753 743.222 865.275 714.621 455.125 417.856 394.618 327.739 225.894 135.387
threshold=-0.10953491104766881 1.0000000180025095e-35 0.09913575269234659 0.75550026493734312 -0.51542501979641786 -0.11582334710467901 3.6919210331951642 -2.4140699383792832 3.4027829523987321 -2.0306293634583059 -2.5383173802997976
decision_type=2 2 2 2 2 2 2 2 2 2 2
left_child=7 2 4 -4 -2 8 -7 -1 -3 -9 -11
right_child=1 5 3 -5 -6 6 -8 9 -10 10 -12
leaf_value=1.1335764314525494 -0.0041179597570762594 -0.0055542118733246087 -0.016488135758315162 0.15449026730387352 0.016677771365104253 -0.053417225626116428 0.5173195922109709 0.3829248061878141 0.20161128603169176 0.14407832415744123 -0.077311322634109281
leaf_weight=2.7215706278802818 28655.856184262433 2625.8762541112374 19969.779333656363 300.43933320618817 39032.872644666553 4352.416647573933 12.86579966265708 10.880069925391579 78.652248487895122 28.037335076951422 1867.1865598740405
leaf_count=777 1371471 420040 1730975 24307 2146328 1159173 383 1033 1823 9556 757698
internal_value=0 0.000268996 0.00284369 -0.0139539 0.00787395 -0.031764 -0.0517351 -0.0697097 0.00047051 -0.0714278 -0.0740362
internal_weight=0 95028.8 87958.9 20270.2 67688.7 7069.81 4365.28 1908.83 2704.53 1906.1 1895.22
internal_count=7623564 6854500 5273081 1755282 3517799 1581419 1159556 769064 421863 768287 767254
is_linear=0
shrinkage=0.1


Tree=46
num_leaves=16
num_cat=0
split_feature=0 193 58 65 206 185 200 76 146 0 179 185 185 0 200
split_gain=2778.01 833.226 807.285 868.505 693.441 703.964 422.155 332.975 0.000298499 0.000628391 0.000415534 8.41028e-05 4.70667e-05 4.7002e-05 2.39502e-05
threshold=0.017795138888888892 0.3522695739009517 -0.84365573266313898 1.3279846976982428 1.8413461397174224 2.8803124176207873 -0.39728650865410281 -0.0033910617411062765 0.73041236017543099 0.027839781746031748 -0.084145563392921521 1.0000000180025095e-35 4.5171755987447488 0.024491567460317464 -1.0000000180025095e-35
decision_type=2 2 2 2 2 2 2 2 2 2 2 2 2 2 2
left_child=1 2 6 -4 5 -3 -1 -6 11 10 -10 14 -11 -13 -2
right_child=8 4 3 -5 7 -7 -8 -9 9 12 -12 13 -14 -15 -16
leaf_value=0.17897269856346337 -0.10003839231889033 0.0055600146161119465 -0.015563902631214745 0.029086373450094377 -0.01934863345693448 0.085454316524374782 0.029866903332412612 0.05863967569783847 -0.10076168080106179 -0.1000827289938935 -0.10025761297011818 -0.10014114840461744 -0.10059666209130801 -0.1000767257666616 -0.10006222688822385
leaf_weight=200.76492891623639 968.76677925139666 40030.490235134028 39541.702958644193 4895.7349588827929 631.9893846254563 1134.1015461987117 3502.7975764962321 4093.1641045523575 23.599844934302382 254.14841528100078 53.266923601855524 143.5212268793548 1.7945551047450852 536.94326840070426 746.43011203806964
leaf_count=4747 2725991 795523 940092 74619 14683 6612 38713 44993 13175 439296 42559 155713 931 883344 1443102
internal_value=0 0.00228439 -0.00690627 -0.0106447 0.0119259 0.00776114 0.0379497 0.0482087 -0.100073 -0.100162 -0.100412 -0.100061 -0.100086 -0.10009 -0.100049
internal_weight=0 94030.7 48141 44437.4 45889.7 41164.6 3703.56 4725.15 2728.47 332.81 76.8668 2395.66 255.943 680.464 1715.2
internal_count=7624093 1919982 1058171 1014711 861811 802135 43460 59676 5704111 495961 55734 5208150 440227 1039057 4169093
is_linear=0
shrinkage=0.1


Tree=47
num_leaves=14
num_cat=0
split_feature=0 185 0 185 54 100 65 0 110 126 170 0 185
split_gain=2490.64 781.452 759.861 913.183 740.507 240.789 156.063 8.92506 11.5482 5.50856 0.000444891 0.000523126 4.7379e-05
threshold=0.017423115079365083 -0.63894338276987195 0.0089905753968253978 0.42501764593484398 0.20258778076263126 2.3720513405172015 -2.1100133247686355 0.017795138888888892 1.0000000180025095e-35 -0.76026217678944963 1.0000000180025095e-35 0.025979662698412703 0.26133133757891264
decision_type=2 2 2 2 2 2 2 2 2 2 2 2 2
left_child=1 5 4 -4 -3 6 -1 8 9 -2 12 -12 -9
right_child=7 2 3 -5 -6 -7 -8 10 -10 -11 11 -13 -14
leaf_value=0.17915491903034864 0.0086885720865793395 0.0045548716071521353 -0.03136028807336326 0.0076104355937541947 0.039955992157965997 0.4504673161034255 -0.085594840133327285 -0.10004502901903736 0.11147513117961097 -0.084931015633950308 -0.10041416364608724 -0.10009821856146493 -0.1000837126347536
leaf_weight=22.680325073946733 7.321927307144505 62110.735072182957 12569.630222240899 11526.915608082898 6529.9551163339056 8.5919142704224196 1216.9583454339881 1834.5110233948799 3.6884077388676806 44.378792465344304 74.612218387279427 176.08485939342063 382.65724237659015
leaf_count=1925 4241 866914 682320 122399 61100 653 145791 4760854 1304 33160 49830 298363 594047
internal_value=0 0.00150154 0.00255943 -0.0127181 0.00792267 -0.0770945 -0.080751 -0.099175 -0.0594765 -0.0716725 -0.100066 -0.100192 -0.100052
